// #### Generated By: http://www.cufonfonts.com ####
/*!
 * The following copyright notice may not be removed under any circumstances.
 * 
 * Copyright:
 * © 2008 Microsoft Corporation. All Rights Reserved.
 * 
 * Trademark:
 * Corbel is either a registered trademark or a trademark of Microsoft Corporation
 * in the United States and/or other countries.
 * 
 * Description:
 * Corbel is designed to give an uncluttered and clean appearance on screen. The
 * letter forms are open with soft, flowing curves. It is legible, clear and
 * functional at small sizes. At larger sizes the detailing and style of the shapes
 * is more apparent resulting in a modern sans serif type with a wide range of
 * possible uses.
 * 
 * Manufacturer:
 * Microsoft Corporation
 * 
 * Designer:
 * Jeremy Tankard
 * 
 * Vendor URL:
 * http://www.microsoft.com/typography/ctfonts
 * 
 * License information:
 * http://www.microsoft.com/typography/fonts/default.aspx
 */
Cufon.registerFont({"w":1050,"face":{"font-family":"Corbel","font-weight":400,"font-stretch":"normal","units-per-em":"2048","panose-1":"2 11 5 3 2 2 4 2 2 4","ascent":"1523","descent":"-525","x-height":"25","bbox":"-120 -1670 1890 490.031","underline-thickness":"120","underline-position":"-130","unicode-range":"U+000D-U+20AC"},"glyphs":{" ":{"w":410,"k":{"\u00dc":60,"\u015e":50,"\u00d6":80,"\u011e":80,"\u00c7":80,"Z":70,"Y":225,"X":70,"W":110,"V":140,"U":60,"T":140,"S":50,"Q":80,"O":80,"J":40,"G":80,"C":80,"A":90}},"\r":{"w":410},"\u00a0":{"w":410},"A":{"d":"35,0r545,-1338r141,0r545,1338r-177,0r-160,-403r-559,0r-160,403r-175,0xm649,-1130v-59,167,-116,318,-171,454r-50,126r443,0r-50,-126v-55,-139,-111,-290,-168,-454r-4,0","w":1301,"k":{"\"":145,"'":145,"y":50,"w":40,"v":40,"\u00d6":20,"\u011e":20,"\u00c7":20,"Y":120,"W":85,"V":110,"T":110,"Q":20,"O":20,"G":20,"C":20}},"B":{"d":"1043,-991v-2,165,-86,251,-213,295r0,4v192,22,317,181,256,400v-60,217,-272,292,-570,292r-346,0r0,-1338r418,2v217,6,373,74,436,232v13,35,19,72,19,113xm871,-980v3,-244,-290,-209,-538,-211r0,432r248,0v174,3,288,-60,290,-221xm928,-390v5,-273,-327,-216,-595,-222r0,465v279,1,590,26,595,-243","w":1215},"C":{"d":"1094,-1171v-135,-47,-338,-68,-482,-11v-198,78,-320,249,-320,524v0,353,185,538,534,538v103,0,202,-21,281,-47r0,144v-159,62,-430,62,-593,1v-249,-93,-394,-296,-394,-630v0,-337,158,-554,402,-658v159,-68,416,-68,572,-5r0,144","w":1207,"k":{"}":-50,"]":-50,"y":75,"w":75,"v":75,"\u00c7":20,"C":20}},"D":{"d":"1140,-1072v101,133,149,399,85,617v-90,307,-345,461,-752,455r-303,0r0,-1338r306,0v315,-6,530,90,664,266xm456,-147v398,13,626,-152,626,-528v0,-374,-234,-527,-626,-516r-123,0r0,1044r123,0","w":1374,"k":{"]":80,")":80,".":50,",":50,"Y":40,"X":40,"V":20,"T":50,"J":60}},"E":{"d":"333,-147r686,0r0,147r-849,0r0,-1338r812,0r0,147r-649,0r0,432r577,0r0,147r-577,0r0,465","w":1129},"F":{"d":"333,0r-163,0r0,-1338r798,0r0,147r-635,0r0,432r563,0r0,147r-563,0r0,612","w":1033,"k":{".":140,",":140,"J":90,"A":100}},"G":{"d":"834,-120v74,0,153,-8,211,-23r0,-398r-305,0r0,-147r468,0r0,647v-174,74,-494,90,-686,19v-248,-91,-402,-288,-402,-616v0,-353,178,-571,438,-674v170,-67,435,-66,601,-3r0,144v-141,-47,-357,-69,-511,-13v-211,76,-356,243,-356,528v0,356,190,533,542,536","w":1368},"H":{"d":"333,-759r701,0r0,-579r163,0r0,1338r-163,0r0,-612r-701,0r0,612r-163,0r0,-1338r163,0r0,579","w":1367},"I":{"d":"170,0r0,-1338r163,0r0,1338r-163,0","w":503},"J":{"d":"234,-120v137,1,205,-67,205,-207r0,-1011r163,0r0,1031v-3,223,-132,329,-354,332v-75,1,-142,-14,-188,-33r0,-144v49,20,106,32,174,32","w":767},"K":{"d":"170,0r0,-1338r163,0r0,661r2,0r615,-661r201,0r-624,666r672,672r-212,0r-652,-655r-2,0r0,655r-163,0","w":1239,"k":{"-":90,"\u00f6":40,"\u011f":40,"\u00e7":40,"y":110,"w":110,"v":110,"q":40,"o":40,"g":40,"e":40,"d":40,"c":40,"\u00d6":100,"\u011e":100,"\u00c7":100,"Q":100,"O":100,"G":100,"C":100}},"L":{"d":"333,-1338r0,1191r653,0r0,147r-816,0r0,-1338r163,0","w":1066,"k":{"\"":225,"'":225,"?":70,"-":60,"y":110,"w":110,"v":110,"\u00d6":80,"\u011e":80,"\u00c7":80,"Y":270,"W":130,"V":200,"T":250,"Q":80,"O":80,"G":80,"C":80}},"M":{"d":"879,0r-75,0r-337,-799v-47,-110,-93,-230,-140,-359r-8,0v9,186,14,356,14,511r0,647r-163,0r0,-1338r235,0r315,757v36,87,76,191,119,313r5,0v48,-135,88,-239,119,-313r315,-757r235,0r0,1338r-163,0r0,-647v0,-151,5,-322,14,-511r-8,0v-49,137,-96,256,-140,359","w":1683},"N":{"d":"857,-592r243,364r6,0v-23,-354,-10,-738,-13,-1110r163,0r0,1338r-162,0r-525,-746v-91,-130,-172,-251,-243,-364r-6,0v22,326,10,753,13,1110r-163,0r0,-1338r162,0","w":1426},"O":{"d":"1169,-430v45,-132,46,-344,0,-476v-63,-181,-192,-312,-421,-312v-311,0,-456,226,-456,550v0,259,99,435,278,513v108,47,250,47,358,0v116,-50,197,-146,241,-275xm1333,-948v57,166,58,394,-1,559v-86,240,-268,414,-582,414v-318,0,-502,-172,-587,-414v-58,-166,-58,-395,1,-559v87,-241,268,-415,584,-415v317,0,500,173,585,415","w":1496,"k":{"]":80,")":80,".":50,",":50,"Y":40,"X":40,"V":20,"T":50,"J":55,"A":20}},"P":{"d":"541,-1338v298,1,527,95,527,380v0,362,-355,434,-735,408r0,550r-163,0r0,-1338r371,0xm895,-958v-1,-259,-296,-234,-562,-233r0,492v267,22,563,6,562,-259","w":1168,"k":{"-":50,".":245,",":245,"\u00f6":90,"\u011f":90,"\u00e7":90,"q":90,"o":90,"g":90,"e":90,"d":90,"c":90,"Z":55,"X":30,"J":160,"A":160}},"Q":{"d":"1169,-430v45,-132,46,-344,0,-476v-63,-181,-192,-312,-421,-312v-311,0,-456,226,-456,550v0,259,99,435,278,513v108,47,250,47,358,0v116,-50,197,-146,241,-275xm1404,10v-214,-23,-439,10,-652,10v-319,0,-505,-165,-589,-408v-57,-166,-58,-396,1,-560v87,-241,268,-415,584,-415v315,0,500,171,585,410v29,83,43,174,43,271v0,272,-112,457,-279,566r0,4v103,-16,194,-28,307,-25r0,147","w":1514,"k":{"]":50,")":50}},"R":{"d":"1067,-953v0,235,-153,338,-357,377r0,4r437,572r-205,0r-412,-554r-197,0r0,554r-163,0r0,-1338r347,0v318,-6,550,93,550,385xm894,-956v-3,-197,-162,-239,-376,-235r-185,0r0,490v279,5,565,13,561,-255","w":1212,"k":{")":30,"-":80,"\u00fc":30,"\u00f6":40,"\u011f":40,"\u00e7":40,"u":30,"q":40,"o":40,"g":40,"e":40,"d":40,"c":40}},"S":{"d":"953,-1138v-198,-96,-663,-161,-659,154v3,171,155,197,294,232v213,54,424,110,420,378v-4,294,-220,399,-517,399v-138,0,-273,-29,-363,-77r0,-149v208,103,720,163,712,-169v-6,-231,-274,-213,-450,-276v-146,-52,-264,-130,-262,-326v3,-271,186,-386,456,-391v144,-2,268,31,369,74r0,151","w":1130,"k":{")":30}},"T":{"d":"650,0r-163,0r0,-1191r-447,0r0,-147r1057,0r0,147r-447,0r0,1191","w":1137,"k":{"-":140,".":160,":":140,";":140,",":120,"\u00fc":130,"\u015f":130,"\u00f6":130,"\u0131":110,"\u011f":130,"\u00e7":130,"z":130,"y":130,"x":130,"w":130,"v":130,"u":130,"s":130,"r":130,"q":130,"p":130,"o":130,"n":130,"m":130,"g":130,"e":130,"d":130,"c":130,"a":150,"\u00d6":50,"\u011e":50,"\u00c7":50,"Q":50,"O":50,"J":90,"G":50,"C":50,"A":110}},"U":{"d":"328,-508v2,244,114,388,359,388v245,0,358,-142,359,-388r0,-830r163,0r0,826v-1,350,-172,537,-524,537v-352,0,-520,-189,-520,-537r0,-826r163,0r0,830","w":1374,"k":{".":50,",":50}},"V":{"d":"624,-208v48,-146,100,-293,155,-442r255,-688r169,0r-510,1338r-143,0r-510,-1338r169,0r255,688v56,149,108,296,156,442r4,0","w":1243,"k":{"-":70,".":140,":":70,";":70,",":130,"\u015f":75,"\u00f6":80,"\u011f":80,"\u00e7":80,"s":75,"r":65,"q":80,"o":80,"n":65,"m":65,"g":80,"e":80,"d":80,"c":80,"\u00d6":20,"\u011e":20,"\u00c7":20,"Q":20,"O":20,"J":120,"G":20,"C":20,"A":110}},"W":{"d":"901,-1117v-11,61,-35,169,-75,322r-208,795r-166,0r-412,-1338r171,0r226,785v36,126,67,239,92,340r4,0v13,-62,27,-122,43,-181r246,-944r162,0r204,787v50,189,78,302,85,338r4,0v23,-93,53,-207,92,-340r226,-785r171,0r-412,1338r-166,0r-208,-795v-38,-148,-63,-255,-75,-322r-4,0","w":1806,"k":{"-":30,".":70,",":90,"\u015f":60,"\u00f6":75,"\u011f":75,"\u00e7":75,"s":60,"q":75,"o":75,"g":75,"e":75,"d":75,"c":75,"J":100,"A":85}},"X":{"d":"604,-796r370,-542r181,0r-454,659r475,679r-183,0r-392,-567r-4,0r-392,567r-185,0r479,-683r-450,-655r179,0r372,542r4,0","w":1196,"k":{"-":50,"\u00d6":40,"\u011e":40,"\u00c7":40,"Q":40,"O":40,"G":40,"C":40}},"Y":{"d":"690,-538r0,538r-163,0r0,-538r-487,-800r178,0r388,650r5,0r388,-650r178,0","w":1217,"k":{"-":150,".":195,":":110,";":110,",":130,"\u00fc":110,"\u015f":135,"\u00f6":160,"\u011f":160,"\u00e7":160,"z":80,"y":80,"x":80,"w":80,"v":80,"u":110,"s":135,"r":110,"q":160,"p":110,"o":160,"n":110,"m":110,"g":160,"e":160,"d":160,"c":160,"a":140,"\u00d6":40,"\u011e":40,"\u00c7":40,"Q":40,"O":40,"J":120,"G":40,"C":40,"A":120}},"Z":{"d":"1090,-1338r0,102r-776,1089r785,0r0,147r-999,0r0,-102r778,-1089r-760,0r0,-147r972,0","w":1199,"k":{"-":50}},"\u00c7":{"d":"499,358v88,23,264,41,274,-64v-11,-78,-112,-70,-197,-79r62,-204v-330,-61,-518,-278,-518,-663v0,-337,158,-554,402,-658v159,-68,416,-68,572,-5r0,144v-135,-47,-338,-68,-482,-11v-198,78,-320,249,-320,524v0,353,185,538,534,538v103,0,202,-21,281,-47r0,144v-91,35,-224,54,-351,46r-28,103v98,16,180,54,181,165v2,190,-239,227,-410,180r0,-113","w":1207,"k":{"}":-50,"]":-50,"y":75,"w":75,"v":75,"\u00c7":20,"C":20}},"\u011e":{"d":"565,-1670v15,88,75,140,173,140v98,0,158,-52,173,-140r133,0v-15,199,-207,306,-419,244v-109,-32,-178,-116,-193,-244r133,0xm834,-120v74,0,153,-8,211,-23r0,-398r-305,0r0,-147r468,0r0,647v-174,74,-494,90,-686,19v-248,-91,-402,-288,-402,-616v0,-353,178,-571,438,-674v170,-67,435,-66,601,-3r0,144v-141,-47,-357,-69,-511,-13v-211,76,-356,243,-356,528v0,356,190,533,542,536","w":1368},"\u0130":{"d":"178,-1448r0,-173r163,0r0,173r-163,0xm170,0r0,-1338r163,0r0,1338r-163,0","w":503},"\u00d6":{"d":"476,-1448r0,-169r161,0r0,169r-161,0xm859,-1448r0,-169r161,0r0,169r-161,0xm1169,-430v45,-132,46,-344,0,-476v-63,-181,-192,-312,-421,-312v-311,0,-456,226,-456,550v0,259,99,435,278,513v108,47,250,47,358,0v116,-50,197,-146,241,-275xm1333,-948v57,166,58,394,-1,559v-86,240,-268,414,-582,414v-318,0,-502,-172,-587,-414v-58,-166,-58,-395,1,-559v87,-241,268,-415,584,-415v317,0,500,173,585,415","w":1496,"k":{"]":80,")":80,".":50,",":50,"Y":40,"X":40,"V":20,"T":50,"J":55,"A":20}},"\u015e":{"d":"305,358v88,23,264,41,274,-64v-11,-78,-112,-70,-197,-79r58,-192v-116,-8,-234,-31,-312,-75r0,-149v208,103,720,164,712,-169v-6,-231,-275,-212,-450,-276v-146,-53,-264,-130,-262,-326v3,-271,186,-386,456,-391v146,-2,266,31,369,74r0,151v-197,-97,-663,-161,-659,154v3,171,155,197,294,232v213,54,423,110,420,378v-3,272,-189,375,-446,396r-28,104v98,16,180,54,181,165v2,190,-239,227,-410,180r0,-113","w":1130,"k":{")":30}},"\u00dc":{"d":"415,-1448r0,-169r161,0r0,169r-161,0xm798,-1448r0,-169r161,0r0,169r-161,0xm328,-508v2,244,114,388,359,388v245,0,358,-142,359,-388r0,-830r163,0r0,826v-1,350,-172,537,-524,537v-352,0,-520,-189,-520,-537r0,-826r163,0r0,830","w":1374,"k":{".":50,",":50}},"a":{"d":"177,-919v128,-65,390,-80,517,-5v101,60,159,136,159,290r0,634r-130,0r-17,-105r-4,0v-62,74,-159,130,-294,130v-196,0,-313,-110,-313,-306v0,-205,143,-299,350,-303v97,-2,181,21,253,43v0,-70,3,-143,-22,-188v-40,-70,-118,-112,-237,-111v-104,1,-183,21,-262,51r0,-130xm437,-107v119,0,201,-63,261,-120r0,-190v-64,-17,-146,-35,-232,-35v-125,0,-212,50,-211,171v1,115,69,174,182,174","w":1003},"b":{"d":"559,-107v205,0,281,-163,281,-372v0,-218,-78,-363,-277,-363v-107,0,-190,51,-248,108r0,497v52,66,127,130,244,130xm318,-861v75,-83,206,-139,360,-105v212,47,324,210,324,475v0,247,-97,411,-266,485v-50,22,-103,31,-157,31v-129,0,-216,-58,-266,-131r-3,0r-33,106r-117,0r0,-1448r155,0r0,587r3,0","w":1097,"k":{"]":40,")":40}},"c":{"d":"813,-29v-105,57,-299,73,-431,25v-179,-65,-287,-214,-287,-459v0,-282,130,-447,356,-501v122,-29,264,-4,347,44r0,129v-74,-27,-135,-48,-224,-48v-215,0,-317,144,-317,374v0,216,107,355,324,355v87,0,165,-21,232,-48r0,129","w":898,"k":{"-":60,"\u00e7":30,"c":30}},"d":{"d":"782,-734v-71,-76,-206,-143,-340,-92v-125,47,-187,175,-185,361v3,204,76,358,275,358v121,0,198,-61,250,-130r0,-497xm784,-106v-58,74,-137,135,-272,131v-279,-9,-417,-192,-417,-488v0,-275,112,-447,329,-501v152,-38,282,16,355,103r3,0r0,-587r155,0r0,1448r-117,0r-32,-106r-4,0","w":1097},"e":{"d":"743,-576v-4,-153,-69,-266,-221,-266v-159,0,-240,117,-259,266r480,0xm255,-443v1,226,130,331,352,333v108,1,185,-19,267,-48r0,129v-70,34,-179,55,-287,54v-316,-4,-492,-164,-492,-487v0,-246,101,-407,270,-481v52,-22,106,-32,163,-32v289,0,392,220,379,532r-652,0","w":1019,"k":{"]":40,")":40,"y":10,"v":10}},"f":{"d":"553,-1473v51,-1,114,6,148,16r0,131v-34,-7,-89,-12,-128,-12v-155,-1,-222,84,-221,242r0,146r283,0r0,133r-283,0r0,817r-155,0r0,-817r-167,0r0,-133r167,0r0,-145v1,-244,121,-372,356,-378","w":651,"k":{"\"":-70,"'":-70,"}":-90,"]":-70,")":-40,"-":40,".":80,",":50}},"g":{"d":"538,-842v-205,0,-281,163,-281,373v0,218,80,362,279,362v107,0,189,-49,246,-108r0,-497v-52,-66,-127,-130,-244,-130xm506,25v-276,0,-411,-188,-411,-481v0,-247,97,-413,266,-488v50,-22,103,-31,157,-31v129,1,216,58,266,133r4,0r32,-108r117,0r0,1006v-5,300,-195,430,-496,434v-110,1,-218,-22,-284,-56r0,-131v81,33,166,52,280,52v218,0,346,-99,345,-316r0,-127r-3,0v-64,70,-147,113,-273,113","w":1087,"k":{"j":-15}},"h":{"d":"599,-842v-130,0,-224,79,-284,167r0,675r-155,0r0,-1448r155,0r0,628r3,0v68,-85,160,-155,310,-155v205,0,313,119,312,339r0,636r-155,0r0,-611v-1,-145,-46,-231,-186,-231","w":1090,"k":{"]":40,")":40}},"i":{"d":"160,0r0,-950r155,0r0,950r-155,0xm156,-1171r0,-173r163,0r0,173r-163,0","w":475},"j":{"d":"2,355v122,0,177,-44,177,-161r0,-1144r155,0r0,1162v-3,188,-110,278,-313,278v-48,0,-110,-9,-141,-20r0,-132v38,10,76,17,122,17xm175,-1171r0,-173r163,0r0,173r-163,0","w":494,"k":{"j":-15}},"k":{"d":"765,-950r202,0r-464,437r463,513r-193,0r-456,-506r-2,0r0,506r-155,0r0,-1448r155,0r0,922","w":997,"k":{"-":110,"\u00f6":40,"\u011f":40,"\u00e7":40,"q":40,"o":40,"g":40,"e":40,"d":40,"c":40}},"l":{"d":"160,0r0,-1448r155,0r0,1448r-155,0","w":475},"m":{"d":"1200,-842v-131,0,-212,79,-274,167r0,675r-155,0r0,-611v0,-143,-55,-231,-193,-231v-131,0,-211,79,-273,167r0,675r-155,0r0,-950r120,0r30,132r3,0v68,-85,154,-156,305,-157v150,-1,236,81,284,190r4,0v76,-105,169,-190,333,-190v205,0,318,120,318,339r0,636r-154,0r0,-611v0,-143,-55,-231,-193,-231","w":1697,"k":{"]":40,")":40}},"n":{"d":"589,-842v-128,0,-225,80,-284,167r0,675r-155,0r0,-950r120,0r30,132r3,0v70,-86,161,-157,315,-157v210,0,312,122,312,339r0,636r-155,0r0,-611v1,-150,-51,-231,-186,-231","w":1080,"k":{"]":40,")":40}},"o":{"d":"754,-203v73,-82,106,-283,60,-427v-38,-121,-118,-213,-268,-213v-203,0,-289,158,-289,369v0,212,87,367,290,367v94,0,159,-42,207,-96xm966,-679v41,119,42,290,-1,409v-62,173,-192,295,-418,295v-228,0,-360,-121,-421,-295v-41,-120,-42,-291,1,-409v62,-173,192,-296,419,-296v228,0,360,122,420,296","w":1092,"k":{"]":40,")":40}},"p":{"d":"551,-107v199,0,279,-157,279,-377v0,-206,-74,-358,-274,-358v-121,0,-197,64,-251,130r0,497v58,59,138,108,246,108xm303,-842v69,-109,267,-171,431,-106v167,66,258,223,258,462v0,274,-111,447,-328,500v-152,37,-283,-15,-356,-102r-3,0r0,553r-155,0r0,-1415r117,0r33,108r3,0","w":1087,"k":{"]":30,")":30}},"q":{"d":"533,-842v-205,0,-281,163,-281,373v0,218,80,362,279,362v107,0,189,-49,246,-108r0,-497v-52,-66,-127,-130,-244,-130xm501,25v-276,0,-411,-188,-411,-481v0,-247,97,-413,266,-488v50,-22,103,-31,157,-31v130,2,216,56,266,133r4,0r32,-108r117,0r0,1415r-155,0r0,-553r-3,0v-64,70,-147,113,-273,113","w":1072,"k":{";":-50,",":-50}},"r":{"d":"303,-799v70,-106,188,-187,368,-174r0,149v-173,0,-298,56,-366,162r0,662r-155,0r0,-950r120,0r30,151r3,0","w":686,"k":{"-":110,".":110,",":100}},"s":{"d":"704,-790v-135,-58,-454,-112,-454,93v0,153,194,134,310,175v106,38,187,103,183,250v-6,214,-167,294,-385,297v-107,2,-195,-20,-263,-54r0,-130v147,67,495,104,495,-105v0,-154,-180,-143,-300,-183v-107,-35,-193,-92,-191,-235v3,-200,138,-289,336,-293v105,-2,195,23,269,53r0,132","w":828},"t":{"d":"522,-110v43,0,94,-8,129,-18r0,130v-38,14,-98,23,-159,23v-185,-1,-294,-84,-294,-264r0,-578r-183,0r0,-133r183,0r0,-260r155,0r0,260r284,0r0,133r-284,0r0,554v2,104,62,153,169,153","w":711,"k":{"-":40}},"u":{"d":"530,-107v162,0,235,-95,235,-261r0,-582r155,0r0,584v0,260,-137,391,-393,391v-254,0,-387,-134,-387,-392r0,-583r155,0r0,582v-1,167,74,261,235,261","w":1060},"v":{"d":"474,-157r280,-793r162,0r-362,950r-162,0r-362,-950r160,0r280,793r4,0","w":946,"k":{"]":30,")":30,"?":50,".":100,",":70}},"w":{"d":"726,-793v-21,87,-40,163,-58,226r-156,567r-159,0r-313,-950r157,0r176,592v23,78,41,140,53,187r4,0v11,-48,28,-117,53,-208r159,-571r174,0r159,571v21,77,39,147,53,208r4,0v16,-61,34,-124,53,-187r176,-592r157,0r-313,950r-161,0r-156,-567v-19,-67,-38,-143,-58,-226r-4,0","w":1458,"k":{"]":20,")":20,"?":40,".":60,",":60}},"x":{"d":"470,-584r258,-366r171,0r-347,470r360,480r-168,0r-278,-380r-4,0r-274,380r-168,0r360,-484r-347,-466r171,0r262,366r4,0","w":932,"k":{"?":50,"-":50}},"y":{"d":"30,-950r159,0r295,745r6,0r299,-745r163,0r-593,1415r-154,0r203,-484","w":982,"k":{"?":40,".":100,",":70}},"z":{"d":"608,-813r0,-4r-522,0r0,-133r719,0r0,98r-528,715r0,4r563,0r0,133r-770,0r0,-84","w":910,"k":{"?":40,"-":60}},"\u00e7":{"d":"325,358v88,23,264,41,274,-64v-11,-78,-112,-70,-197,-79r60,-199v-232,-44,-367,-203,-367,-479v0,-282,130,-447,356,-501v122,-29,264,-3,347,44r0,129v-75,-27,-135,-48,-224,-48v-216,0,-317,146,-317,374v0,216,107,355,324,355v86,0,166,-21,232,-48r0,129v-57,33,-143,50,-231,54r-28,101v98,16,180,54,181,165v2,190,-239,227,-410,180r0,-113","w":898,"k":{"-":60,"\u00e7":30,"c":30}},"\u011f":{"d":"366,-1432v17,109,63,175,175,175v112,0,158,-67,175,-175r131,0v-15,181,-114,296,-306,296v-192,0,-290,-115,-306,-296r131,0xm538,-842v-205,0,-281,163,-281,373v0,218,80,362,279,362v107,0,189,-49,246,-108r0,-497v-52,-66,-127,-130,-244,-130xm506,25v-276,0,-411,-188,-411,-481v0,-247,97,-413,266,-488v50,-22,103,-31,157,-31v129,1,216,58,266,133r4,0r32,-108r117,0r0,1006v-5,300,-195,430,-496,434v-110,1,-218,-22,-284,-56r0,-131v81,33,166,52,280,52v218,0,346,-99,345,-316r0,-127r-3,0v-64,70,-147,113,-273,113","w":1087,"k":{"j":-15}},"\u0131":{"d":"160,0r0,-950r155,0r0,950r-155,0","w":475},"\u00f6":{"d":"275,-1171r0,-167r159,0r0,167r-159,0xm656,-1171r0,-167r159,0r0,167r-159,0xm754,-203v73,-82,106,-283,60,-427v-38,-121,-118,-213,-268,-213v-203,0,-289,158,-289,369v0,212,87,367,290,367v94,0,159,-42,207,-96xm966,-679v41,119,42,290,-1,409v-62,173,-192,295,-418,295v-228,0,-360,-121,-421,-295v-41,-120,-42,-291,1,-409v62,-173,192,-296,419,-296v228,0,360,122,420,296","w":1092,"k":{"]":40,")":40}},"\u015f":{"d":"704,-790v-135,-58,-454,-112,-454,93v0,153,194,134,310,175v106,38,186,103,183,250v-4,189,-133,268,-306,292r-29,106v98,16,180,54,181,165v2,190,-238,227,-410,180r0,-113v88,23,264,41,274,-64v-11,-78,-112,-70,-197,-79r58,-191v-93,-4,-164,-24,-219,-53r0,-130v77,31,148,52,249,52v130,0,246,-33,246,-157v0,-154,-180,-143,-300,-183v-107,-35,-193,-92,-191,-235v3,-200,138,-289,336,-293v105,-2,195,23,269,53r0,132","w":828},"\u00fc":{"d":"260,-1171r0,-167r159,0r0,167r-159,0xm641,-1171r0,-167r159,0r0,167r-159,0xm530,-107v162,0,235,-95,235,-261r0,-582r155,0r0,584v0,260,-137,391,-393,391v-254,0,-387,-134,-387,-392r0,-583r155,0r0,582v-1,167,74,261,235,261","w":1060},"&":{"d":"955,-326v68,-91,112,-211,114,-370r160,0v-2,204,-77,357,-176,472r218,224r-197,0r-125,-127v-141,117,-402,200,-625,122v-133,-47,-224,-149,-224,-318v0,-218,137,-307,276,-388v-89,-91,-191,-170,-194,-341v-5,-261,259,-358,512,-292v125,33,218,120,218,276v0,220,-163,297,-307,381xm262,-335v0,173,143,251,330,221v102,-17,190,-56,261,-109r-381,-390v-100,63,-210,123,-210,278xm546,-1231v-147,-4,-236,105,-191,249v27,85,99,142,156,202v109,-63,239,-113,239,-274v0,-124,-80,-173,-204,-177","w":1371},"`":{"d":"376,-1473r123,349r-130,0r-161,-349r168,0","w":700},",":{"d":"187,-218r173,0r-189,608r-151,0","w":540,"k":{"y":70,"v":60,"Y":150,"W":130,"V":160,"T":185}},";":{"d":"187,-218r173,0r-189,608r-151,0xm366,-807r0,195r-191,0r0,-195r191,0","w":546,"k":{"Y":110,"V":70,"T":140}},":":{"d":"175,0r0,-195r191,0r0,195r-191,0xm366,-807r0,195r-191,0r0,-195r191,0","w":541,"k":{"Y":110,"V":70,"T":140}},".":{"d":"175,0r0,-195r191,0r0,195r-191,0","w":541,"k":{"y":50,"w":60,"v":70,"\u00d6":50,"Y":195,"W":70,"V":140,"T":160,"O":50}},"-":{"d":"120,-571r441,0r0,145r-441,0r0,-145","w":681,"k":{"z":70,"x":50,"\u015e":40,"Z":60,"Y":150,"X":50,"W":30,"V":70,"T":140,"S":40,"J":130}},"\u2010":{"d":"120,-571r441,0r0,145r-441,0r0,-145","w":681},"\u00ad":{"d":"120,-571r441,0r0,145r-441,0r0,-145","w":681},"!":{"d":"175,0r0,-195r191,0r0,195r-191,0xm360,-1338r-24,907r-131,0r-24,-907r179,0","w":541},"?":{"d":"223,0r0,-195r191,0r0,195r-191,0xm611,-1042v0,-243,-374,-207,-531,-124r0,-132v106,-60,312,-87,454,-42v134,42,238,126,238,291v0,327,-383,285,-384,618r-137,0v-24,-249,149,-328,278,-443v45,-40,82,-86,82,-168","w":873},"\/":{"d":"18,249r380,-1587r148,0r-380,1587r-148,0","w":563},"|":{"d":"305,465r-145,0r0,-1913r145,0r0,1913","w":465},"(":{"d":"542,-1283v-161,179,-277,422,-277,764v0,342,115,585,277,764r-85,80v-234,-212,-405,-599,-329,-1057v45,-271,166,-481,329,-631","w":614,"k":{"\u00f6":40,"\u00e7":40,"w":20,"v":30,"q":30,"o":40,"n":20,"m":20,"j":-90,"e":40,"d":40,"c":40,"\u015e":30,"\u00d6":80,"\u011e":80,"\u00c7":80,"S":30,"Q":80,"O":80,"G":80,"C":80}},")":{"d":"72,245v161,-179,277,-422,277,-764v0,-342,-115,-585,-277,-764r85,-80v234,212,405,597,329,1056v-45,271,-166,482,-329,632","w":614},"[":{"d":"160,-1338r426,0r0,123r-281,0r0,1392r281,0r0,123r-426,0r0,-1638","w":646,"k":{"\u00f6":40,"\u00e7":40,"w":20,"v":30,"q":30,"o":40,"n":20,"m":20,"j":-110,"e":40,"d":40,"c":40,"\u00d6":80,"\u011e":80,"\u00c7":80,"Q":80,"O":80,"G":80,"C":80}},"]":{"d":"486,300r-426,0r0,-123r281,0r0,-1392r-281,0r0,-123r426,0r0,1638","w":646},"{":{"d":"293,-323v1,-106,-70,-137,-173,-135r0,-122v103,2,174,-29,173,-135v-1,-155,-119,-213,-119,-366v0,-195,164,-263,386,-257r0,123v-129,-2,-230,29,-230,137v0,137,104,190,101,339v-3,114,-57,188,-137,218r0,4v80,29,135,105,137,218v3,150,-101,202,-101,339v0,107,102,140,230,137r0,123v-222,6,-386,-61,-386,-255v0,-159,118,-209,119,-368","w":615,"k":{"j":-110}},"}":{"d":"322,-715v-1,106,70,137,173,135r0,122v-103,-2,-174,29,-173,135v2,159,119,209,119,368v0,193,-164,261,-386,255r0,-123v128,2,230,-30,230,-137v0,-137,-104,-189,-101,-339v2,-114,57,-188,137,-218r0,-4v-80,-29,-135,-105,-137,-218v-3,-149,101,-202,101,-339v0,-107,-102,-140,-230,-137r0,-123v222,-6,386,62,386,257v0,153,-118,211,-119,366","w":615},"*":{"d":"553,-849r-5,0r-82,199r-112,154r-117,-85r112,-154r154,-147r-2,-5r-206,-21r-175,-57r45,-138r175,57r178,104r4,-4r-44,-202r0,-190r145,0r0,190r-44,202r4,4r178,-104r175,-57r45,138r-175,57r-206,21r-2,5r154,147r112,154r-117,85r-112,-154","w":1101},"^":{"d":"199,-543r-150,0r408,-820r136,0r408,820r-150,0r-324,-662r-4,0"},"~":{"d":"695,-473v74,0,111,-42,142,-91r102,73v-46,106,-173,179,-327,139v-91,-24,-165,-85,-269,-85v-75,0,-110,42,-142,91r-102,-73v43,-85,116,-152,240,-152v139,0,225,98,356,98"},"\\":{"d":"373,249r-380,-1587r148,0r380,1587r-148,0","w":563},"_":{"d":"0,142r1000,0r0,133r-1000,0r0,-133","w":1000},"'":{"d":"123,-1338r155,0r0,494r-155,0r0,-494","w":401,"k":{".":100,"J":160,"A":145}},"\"":{"d":"123,-1338r155,0r0,494r-155,0r0,-494xm464,-1338r155,0r0,494r-155,0r0,-494","w":742,"k":{".":100,"J":160,"A":145}},"@":{"d":"1004,-127v118,0,194,-60,256,-120r0,-170v-66,-17,-127,-36,-212,-35v-125,0,-212,50,-211,171v1,103,65,154,167,154xm1464,5v-107,0,-168,-48,-192,-130r-4,0v-64,72,-152,130,-289,130v-185,0,-302,-102,-302,-286v0,-205,143,-298,350,-303v99,-2,161,22,233,43v12,-189,-56,-292,-239,-289v-104,2,-183,21,-262,51r0,-130v74,-35,172,-56,281,-56v237,0,375,113,375,346r0,391v1,66,13,101,77,101v144,0,200,-139,232,-270v37,-151,18,-333,-36,-455v-103,-230,-314,-376,-635,-376v-415,0,-630,224,-699,572v-57,289,20,579,168,728v125,126,306,210,556,209v211,-1,395,-38,542,-99r0,135v-203,79,-525,132,-788,71v-396,-91,-652,-356,-652,-838v0,-436,199,-718,514,-848v201,-83,488,-87,696,-8v290,111,500,341,500,728v0,260,-89,452,-257,542v-52,28,-108,41,-169,41","w":2070},"\u20ac":{"d":"215,-452v-3,-57,2,-89,3,-142r-108,0r0,-133r134,0v66,-207,215,-343,485,-343v86,0,166,13,227,38r0,134v-121,-44,-315,-55,-422,13v-55,35,-98,86,-125,158r371,0r0,133r-400,0v-5,43,-5,97,-2,142r326,0r0,133r-303,0v45,147,154,209,342,209v81,0,161,-16,223,-37r0,134v-62,24,-149,38,-235,38v-281,2,-441,-123,-496,-344r-125,0r0,-133r105,0","k":{"5":40}},"$":{"d":"914,-307v0,186,-155,247,-327,274r0,108r-132,0r0,-100v-116,-1,-233,-15,-313,-50r0,-138v81,31,196,54,313,53r0,-286v-162,-28,-315,-71,-315,-261v0,-182,144,-254,315,-276r0,-104r132,0r0,101v105,5,198,21,278,47r0,139v-86,-25,-171,-46,-278,-51r0,283v162,31,327,69,327,261xm587,-169v100,-11,203,-71,158,-185v-30,-46,-92,-61,-158,-74r0,259xm297,-713v0,88,69,106,158,125r0,-259v-105,13,-158,58,-158,134","k":{"9":50,"7":40,"6":30,"5":50,"3":40,"2":50}},"#":{"d":"428,-949r80,-389r148,0r-80,389r304,0r80,-389r148,0r-80,389r193,0r0,132r-220,0r-61,296r199,0r0,132r-226,0r-80,389r-148,0r80,-389r-304,0r-80,389r-148,0r80,-389r-193,0r0,-132r220,0r61,-296r-199,0r0,-132r226,0xm488,-521r304,0r61,-296r-304,0","w":1341},"0":{"d":"527,-107v198,0,273,-161,273,-367v0,-207,-75,-369,-274,-369v-199,0,-274,161,-274,369v0,207,76,367,275,367xm850,-832v98,112,146,362,82,556v-58,173,-181,301,-405,301v-226,0,-352,-126,-409,-301v-63,-195,-12,-446,87,-556v73,-81,174,-143,321,-143v148,0,252,61,324,143","w":1052,"k":{"3":40,"2":40}},"1":{"d":"451,-143r0,-642r-361,113r0,-144r382,-134r134,0r0,807r262,0r0,143r-736,0r0,-143r319,0","w":918,"k":{"7":40,"3":50}},"2":{"d":"489,-975v211,4,357,94,357,304v0,124,-60,205,-127,279v-84,92,-207,173,-311,251r0,4v77,-4,146,-6,207,-6r312,0r0,143r-772,0r0,-103r212,-159v110,-84,210,-167,278,-272v27,-43,40,-86,40,-129v-1,-123,-86,-181,-217,-179v-120,2,-210,40,-303,81r0,-132v78,-44,196,-84,324,-82","w":1046,"k":{"7":40,"5":60,"3":60,"2":90,"0":40}},"3":{"d":"787,-624v0,174,-90,269,-229,312r0,4v168,21,270,127,270,316v0,279,-188,403,-475,405v-110,1,-212,-21,-285,-59r0,-132v81,36,172,58,274,58v199,0,320,-81,324,-269v5,-223,-192,-255,-429,-245r0,-133v223,9,388,-51,388,-255v0,-154,-109,-220,-263,-220v-103,0,-193,27,-273,59r0,-132v176,-83,465,-81,589,39v62,60,109,139,109,252","w":928},"4":{"d":"653,-950r-384,821r148,-4r219,0r0,-304r155,0r0,304r197,0r0,133r-197,0r0,387r-155,0r0,-387r-544,0r0,-114r394,-836r167,0","w":1058},"5":{"d":"337,-410v318,-15,541,97,541,397v0,212,-121,335,-285,394v-141,51,-362,40,-476,-27r0,-132v81,37,162,56,262,56v201,0,331,-93,337,-283v9,-277,-280,-287,-555,-260r95,-685r621,0r0,143r-484,0","w":983,"k":[40]},"6":{"d":"279,-727v79,-38,176,-81,285,-79v255,5,410,137,410,394v0,207,-93,342,-243,404v-107,45,-265,44,-365,-9v-174,-92,-256,-291,-256,-558v0,-303,90,-536,256,-677v77,-65,177,-110,311,-111v91,0,165,20,223,47r0,130v-93,-37,-247,-63,-352,-12v-161,79,-243,248,-269,471xm812,-398v0,-177,-89,-270,-261,-270v-105,0,-209,44,-279,86v-1,208,45,372,172,446v35,20,74,29,116,29v168,0,252,-117,252,-291","w":1074,"k":{"7":70,"5":30,"2":40}},"7":{"d":"39,-807r0,-143r784,0r0,104r-551,1233r-162,0r534,-1194r-605,0","w":876,"k":{"5":50,"4":50,"2":40}},"8":{"d":"688,-689v155,43,271,144,271,340v0,186,-112,292,-255,345v-103,38,-251,38,-354,0v-144,-53,-255,-158,-255,-345v0,-194,107,-298,261,-340r0,-4v-133,-49,-233,-144,-233,-321v0,-182,112,-283,253,-326v222,-68,447,20,521,176v21,44,34,93,34,150v0,178,-109,271,-243,321r0,4xm769,-1009v0,-147,-95,-222,-242,-222v-147,0,-242,75,-242,222v0,151,105,226,242,253v138,-27,242,-102,242,-253xm527,-107v163,0,270,-85,270,-247v0,-172,-115,-245,-270,-265v-155,20,-270,93,-270,265v0,161,108,247,270,247","w":1054,"k":{"7":30,"2":50}},"9":{"d":"799,-223v-113,61,-305,110,-459,53v-145,-54,-240,-172,-240,-369v0,-266,146,-436,414,-436v407,0,492,416,436,831v-43,321,-202,551,-566,557v-101,2,-191,-23,-257,-58r0,-133v100,56,287,78,411,28v172,-68,244,-241,261,-473xm262,-554v-2,177,81,271,254,272v109,0,214,-40,286,-83v-3,-211,-44,-378,-174,-451v-35,-20,-75,-27,-118,-27v-167,0,-246,117,-248,289","w":1074},"%":{"d":"1263,-1363r101,78r-977,1310r-101,-78xm60,-929v0,-237,62,-434,283,-434v221,0,283,198,283,434v0,237,-62,435,-283,435v-221,0,-283,-199,-283,-435xm238,-692v47,101,163,101,210,0v43,-91,43,-382,0,-473v-47,-100,-163,-100,-210,0v-43,91,-43,382,0,473xm1022,-418v0,-237,62,-434,283,-434v221,0,283,198,283,434v0,237,-62,435,-283,435v-221,0,-283,-199,-283,-435xm1200,-182v47,101,163,101,210,0v43,-91,43,-381,0,-472v-47,-100,-163,-100,-210,0v-43,91,-43,381,0,472","w":1648},"+":{"d":"115,-587r340,0r0,-363r140,0r0,363r340,0r0,132r-340,0r0,363r-140,0r0,-363r-340,0r0,-132"},"=":{"d":"115,-639r0,-132r820,0r0,132r-820,0xm115,-273r0,-132r820,0r0,132r-820,0"},"<":{"d":"935,-207r0,152r-820,-413r0,-126r820,-413r0,152r-652,322r0,4"},">":{"d":"777,-529r0,-4r-662,-324r0,-150r820,408r0,136r-820,408r0,-150"},"\u20ab":{"d":"784,-106v-58,75,-137,135,-273,131v-278,-9,-416,-192,-416,-488v0,-275,112,-447,329,-501v152,-38,282,16,355,103r3,0r0,-291r-289,0r0,-133r289,0r0,-163r155,0r0,163r160,0r0,133r-160,0r0,1152r-117,0r-32,-106r-4,0xm536,-842v-198,0,-279,157,-279,377v0,204,76,358,275,358v120,0,198,-63,250,-130r0,-497v-57,-58,-139,-108,-246,-108xm134,142r872,0r0,133r-872,0r0,-133","w":1097}}});
/*!
 * The following copyright notice may not be removed under any circumstances.
 * 
 * Copyright:
 * © 2008 Microsoft Corporation. All Rights Reserved.
 * 
 * Trademark:
 * Corbel is either a registered trademark or a trademark of Microsoft Corporation
 * in the United States and/or other countries.
 * 
 * Description:
 * Corbel is designed to give an uncluttered and clean appearance on screen. The
 * letter forms are open with soft, flowing curves. It is legible, clear and
 * functional at small sizes. At larger sizes the detailing and style of the shapes
 * is more apparent resulting in a modern sans serif type with a wide range of
 * possible uses.
 * 
 * Manufacturer:
 * Microsoft Corporation
 * 
 * Designer:
 * Jeremy Tankard
 * 
 * Vendor URL:
 * http://www.microsoft.com/typography/ctfonts
 * 
 * License information:
 * http://www.microsoft.com/typography/fonts/default.aspx
 */
Cufon.registerFont({"w":1080,"face":{"font-family":"Corbel Bold","font-weight":700,"font-stretch":"normal","units-per-em":"2048","panose-1":"2 11 7 3 2 2 4 2 2 4","ascent":"1523","descent":"-525","x-height":"25","bbox":"-155 -1705 1915.33 490.076","underline-thickness":"120","underline-position":"-130","unicode-range":"U+000D-U+20AC"},"glyphs":{" ":{"w":422,"k":{"\u00dc":60,"\u015e":50,"\u00d6":80,"\u011e":80,"\u00c7":80,"Z":70,"Y":225,"X":70,"W":110,"V":140,"U":60,"T":140,"S":50,"Q":80,"O":80,"J":40,"G":80,"C":80,"A":90}},"\r":{"w":422},"\u00a0":{"w":422},"A":{"d":"926,-341r-504,0r-131,341r-261,0r531,-1338r224,0r531,1338r-259,0xm672,-1016v-47,140,-88,257,-125,351r-46,119r346,0r-46,-119v-37,-95,-78,-212,-125,-351r-4,0","w":1346,"k":{"\"":145,"'":145,"y":80,"w":40,"v":40,"\u00d6":20,"\u011e":20,"\u00c7":20,"Y":120,"W":85,"V":110,"T":110,"Q":20,"O":20,"G":20,"C":20}},"B":{"d":"961,-698v155,45,270,194,209,397v-68,226,-307,301,-621,301r-389,0r0,-1338v290,11,647,-43,823,88v81,60,146,138,146,268v0,138,-63,227,-168,280r0,4xm933,-404v0,-222,-298,-173,-528,-178r0,377v240,-3,528,30,528,-199xm877,-962v0,-138,-117,-171,-271,-171r-201,0r0,346r221,0v159,2,251,-40,251,-175","w":1276},"C":{"d":"1095,-1111v-142,-46,-326,-69,-469,-12v-172,68,-273,224,-273,463v0,304,150,478,451,478v108,0,219,-18,303,-47r0,211v-176,53,-449,60,-618,-6v-242,-94,-389,-295,-389,-621v0,-337,155,-556,400,-662v163,-71,426,-71,595,-12r0,208","w":1197,"k":{"}":-50,"]":-50,"y":75,"w":75,"v":75,"\u00c7":20,"C":20}},"D":{"d":"1311,-674v0,490,-326,676,-833,674r-318,0r0,-1338r354,0v406,-1,674,142,768,452v19,65,29,136,29,212xm1059,-676v0,-329,-209,-459,-546,-457r-108,0r0,928r101,0v362,2,553,-126,553,-471","w":1411,"k":{"]":80,")":80,".":50,",":50,"Y":40,"X":50,"V":20,"T":50,"J":60}},"E":{"d":"405,-205r658,0r0,205r-903,0r0,-1338r867,0r0,205r-622,0r0,346r534,0r0,205r-534,0r0,377","w":1163},"F":{"d":"405,0r-245,0r0,-1338r852,0r0,205r-607,0r0,346r519,0r0,205r-519,0r0,582","w":1067,"k":{".":140,",":140,"J":90,"A":100}},"G":{"d":"826,-182v54,0,121,-7,166,-16r0,-313r-300,0r0,-205r545,0r0,675v-194,69,-529,94,-735,17v-248,-92,-402,-287,-402,-614v0,-315,146,-513,352,-630v105,-60,237,-95,396,-95v122,-1,256,20,341,50r0,208v-150,-49,-362,-76,-522,-19v-188,67,-312,217,-314,468v-2,311,168,473,473,474","w":1377},"H":{"d":"405,-787r620,0r0,-551r245,0r0,1338r-245,0r0,-582r-620,0r0,582r-245,0r0,-1338r245,0r0,551","w":1430},"I":{"d":"160,0r0,-1338r245,0r0,1338r-245,0","w":565},"J":{"d":"243,-182v123,0,181,-55,181,-174r0,-982r245,0r0,989v4,265,-151,370,-404,374v-77,1,-162,-14,-215,-36r0,-209v53,22,122,38,193,38","w":824},"K":{"d":"160,0r0,-1338r245,0r0,609r4,0r505,-609r304,0r-558,663r604,675r-314,0r-541,-604r-4,0r0,604r-245,0","w":1294,"k":{"-":90,"\u00f6":40,"\u011f":40,"\u00e7":40,"y":110,"w":110,"v":110,"q":40,"o":40,"g":40,"e":40,"d":40,"c":40,"\u00d6":100,"\u011e":100,"\u00c7":100,"Q":100,"O":100,"G":100,"C":100}},"L":{"d":"405,-1338r0,1133r626,0r0,205r-871,0r0,-1338r245,0","w":1101,"k":{"\"":225,"'":225,"?":70,"-":60,"y":110,"w":110,"v":110,"\u00d6":80,"\u011e":80,"\u00c7":80,"Y":270,"W":130,"V":200,"T":250,"Q":80,"O":80,"G":80,"C":80}},"M":{"d":"848,-359v93,-325,230,-662,340,-979r344,0r0,1338r-245,0r0,-678v0,-99,4,-215,12,-346r-9,0r-40,128v-15,47,-31,94,-48,140r-277,756r-158,0r-277,-756v-17,-46,-33,-93,-48,-140r-40,-128r-9,0v22,342,8,672,12,1024r-245,0r0,-1338r342,0r231,637v39,106,75,220,109,342r6,0","w":1692},"N":{"d":"857,-716v96,137,174,258,234,364r6,0v-8,-174,-12,-301,-12,-380r0,-606r245,0r0,1338r-257,0r-436,-616v-77,-107,-156,-230,-238,-371r-6,0v8,164,12,291,12,381r0,606r-245,0r0,-1338r257,0","w":1490},"O":{"d":"752,-182v278,0,399,-198,399,-487v0,-289,-119,-487,-399,-487v-279,0,-399,199,-399,487v0,289,121,487,399,487xm1360,-950v58,166,58,397,0,562v-87,248,-280,413,-608,413v-327,0,-521,-166,-608,-413v-58,-166,-58,-397,0,-562v87,-248,280,-413,608,-413v327,0,521,166,608,413","w":1504,"k":{"]":80,")":80,".":50,",":50,"Y":40,"X":50,"V":20,"T":50,"J":55,"A":20}},"P":{"d":"546,-1338v333,-3,584,91,584,402v0,230,-153,336,-345,389v-105,29,-249,33,-380,24r0,523r-245,0r0,-1338r386,0xm877,-941v0,-215,-250,-192,-472,-192r0,404v220,17,472,6,472,-212","w":1230,"k":{"-":50,".":245,",":245,"\u00f6":90,"\u011f":90,"\u00e7":90,"q":90,"o":90,"g":90,"e":90,"d":90,"c":90,"Z":55,"X":30,"J":160,"A":160}},"Q":{"d":"752,-182v278,0,399,-198,399,-487v0,-289,-119,-487,-399,-487v-279,0,-399,199,-399,487v0,289,121,487,399,487xm1404,-679v0,236,-90,401,-228,505r2,3v79,-21,177,-32,279,-31r0,213v-227,-24,-485,8,-712,8v-327,0,-518,-162,-603,-409v-56,-165,-56,-396,2,-560v87,-248,280,-413,608,-413v326,0,520,164,608,409v29,84,44,176,44,275","w":1557,"k":{"]":50,")":50}},"R":{"d":"567,-1338v329,-2,583,87,583,402v0,216,-127,328,-317,382r0,4r398,550r-294,0r-364,-518r-168,0r0,518r-245,0r0,-1338r407,0xm898,-941v0,-224,-266,-190,-493,-192r0,410v240,2,493,11,493,-218","w":1286,"k":{")":30,"-":80,"\u00fc":30,"\u00f6":40,"\u011f":40,"\u00e7":40,"u":30,"q":40,"o":40,"g":40,"e":40,"d":40,"c":40}},"S":{"d":"505,-182v163,0,313,-40,313,-202v0,-155,-170,-161,-302,-191v-209,-48,-396,-116,-392,-371v5,-286,190,-413,479,-417v142,-2,301,32,401,75r0,210v-117,-47,-238,-77,-379,-78v-144,-1,-252,45,-252,176v0,150,141,169,267,197v226,49,434,112,430,389v-5,315,-243,416,-562,419v-143,2,-300,-30,-390,-82r0,-207v119,51,232,82,387,82","w":1182,"k":{")":30}},"T":{"d":"707,0r-245,0r0,-1133r-432,0r0,-205r1108,0r0,205r-431,0r0,1133","w":1168,"k":{"-":140,".":160,":":140,";":140,",":120,"\u00fc":130,"\u015f":130,"\u00f6":130,"\u011f":130,"\u00e7":130,"z":130,"y":130,"x":130,"w":130,"v":130,"u":130,"s":130,"r":130,"q":130,"p":130,"o":130,"n":130,"m":130,"g":130,"e":130,"d":130,"c":130,"a":150,"\u00d6":50,"\u011e":50,"\u00c7":50,"Q":50,"O":50,"J":90,"G":50,"C":50,"A":110}},"U":{"d":"1279,-550v5,386,-188,575,-565,575v-376,0,-559,-192,-559,-575r0,-788r245,0r0,766v-3,251,87,390,317,390v229,0,317,-139,317,-390r0,-766r245,0r0,788","w":1434,"k":{".":50,",":50}},"V":{"d":"656,-327r123,-346r248,-665r259,0r-523,1338r-220,0r-523,-1338r261,0r317,856r54,155r4,0","w":1306,"k":{"-":70,".":140,":":70,";":70,",":130,"\u015f":75,"\u00f6":120,"\u011f":120,"\u00e7":120,"s":75,"r":65,"q":120,"o":120,"n":65,"m":65,"g":120,"e":120,"d":120,"c":120,"\u00d6":20,"\u011e":20,"\u00c7":20,"Q":20,"O":20,"J":120,"G":20,"C":20,"A":110}},"W":{"d":"929,-986v-26,125,-57,253,-90,386r-150,600r-244,0r-425,-1338r261,0r161,533v49,167,88,319,118,454r6,0v29,-145,63,-294,102,-447r138,-540r252,0r138,540v39,151,73,300,102,447r6,0v79,-353,181,-658,279,-987r261,0r-425,1338r-244,0r-150,-600v-34,-135,-64,-264,-90,-386r-6,0","w":1864,"k":{"-":30,".":70,",":90,"\u015f":60,"\u00f6":75,"\u011f":75,"\u00e7":75,"s":60,"q":75,"o":75,"g":75,"e":75,"d":75,"c":75,"J":100,"A":85}},"X":{"d":"513,-1063v65,94,110,161,136,202r5,0r135,-201r191,-276r282,0r-466,658r486,680r-278,0r-209,-299r-142,-208r-4,0r-142,208r-209,299r-278,0r486,-680r-466,-658r282,0","w":1302,"k":{"-":50,"\u00d6":50,"\u011e":50,"\u00c7":50,"Q":50,"O":50,"G":50,"C":50}},"Y":{"d":"651,-762r356,-576r272,0r-507,799r0,539r-245,0r0,-539r-507,-799r272,0r356,576r3,0","w":1299,"k":{"-":150,".":195,":":110,";":110,",":130,"\u00fc":110,"\u015f":135,"\u00f6":160,"\u011f":160,"\u00e7":160,"z":80,"y":80,"x":80,"w":80,"v":80,"u":110,"s":135,"r":110,"q":160,"p":110,"o":160,"n":110,"m":110,"g":160,"e":160,"d":160,"c":160,"a":140,"\u00d6":40,"\u011e":40,"\u00c7":40,"Q":40,"O":40,"J":120,"G":40,"C":40,"A":120}},"Z":{"d":"1132,-1338r0,133r-716,1000r725,0r0,205r-1051,0r0,-132r717,-1001r-699,0r0,-205r1024,0","w":1231,"k":{"-":50}},"\u00c7":{"d":"455,325v78,19,262,44,262,-47v0,-21,-14,-36,-43,-46v-29,-10,-75,-16,-137,-17r62,-208v-315,-66,-499,-280,-499,-652v0,-337,157,-557,401,-663v162,-71,427,-69,594,-11r0,208v-141,-45,-327,-68,-469,-12v-172,68,-273,224,-273,463v0,304,150,474,451,478v104,1,226,-21,303,-47r0,211v-103,29,-229,47,-362,42r-26,94v100,17,186,59,186,168v0,195,-263,232,-450,185r0,-146","w":1197,"k":{"}":-50,"]":-50,"y":75,"w":75,"v":75,"\u00c7":20,"C":20}},"\u011e":{"d":"588,-1680v12,72,55,112,130,112v74,0,119,-40,130,-112r206,0v-22,180,-136,278,-336,278v-200,0,-314,-98,-336,-278r206,0xm826,-182v54,0,121,-7,166,-16r0,-313r-300,0r0,-205r545,0r0,675v-194,69,-529,94,-735,17v-248,-92,-402,-287,-402,-614v0,-315,146,-513,352,-630v105,-60,237,-95,396,-95v122,-1,256,20,341,50r0,208v-150,-49,-362,-76,-522,-19v-188,67,-312,217,-314,468v-2,311,168,473,473,474","w":1377},"\u0130":{"d":"167,-1705r249,0r0,257r-249,0r0,-257xm160,0r0,-1338r245,0r0,1338r-245,0","w":565},"\u00d6":{"d":"437,-1673r224,0r0,225r-224,0r0,-225xm849,-1673r224,0r0,225r-224,0r0,-225xm752,-182v278,0,399,-198,399,-487v0,-289,-119,-487,-399,-487v-279,0,-399,199,-399,487v0,289,121,487,399,487xm1360,-950v58,166,58,397,0,562v-87,248,-280,413,-608,413v-327,0,-521,-166,-608,-413v-58,-166,-58,-397,0,-562v87,-248,280,-413,608,-413v327,0,521,166,608,413","w":1504,"k":{"]":80,")":80,".":50,",":50,"Y":40,"X":50,"V":20,"T":50,"J":55,"A":20}},"\u015e":{"d":"505,-182v163,0,313,-40,313,-202v0,-155,-170,-161,-302,-191v-209,-48,-395,-116,-392,-371v4,-282,188,-417,469,-417v158,0,298,27,411,75r0,210v-117,-48,-237,-77,-379,-78v-144,-1,-252,45,-252,176v0,150,141,170,267,197v226,49,433,112,430,389v-3,287,-201,391,-472,415r-26,97v100,17,186,59,186,168v0,195,-263,232,-450,185r0,-146v78,19,262,44,262,-47v0,-21,-15,-36,-44,-46v-29,-10,-74,-16,-136,-17r57,-192v-124,-9,-243,-32,-329,-80r0,-207v119,51,232,82,387,82","w":1182,"k":{")":30}},"\u00dc":{"d":"400,-1673r224,0r0,225r-224,0r0,-225xm812,-1673r224,0r0,225r-224,0r0,-225xm1279,-550v5,386,-188,575,-565,575v-376,0,-559,-192,-559,-575r0,-788r245,0r0,766v-3,251,87,390,317,390v229,0,317,-139,317,-390r0,-766r245,0r0,788","w":1434,"k":{".":50,",":50}},"a":{"d":"918,-288r6,288r-214,0r-10,-103r-4,0v-67,66,-154,128,-287,128v-198,0,-324,-112,-324,-310v0,-225,158,-329,387,-333v78,-1,151,11,209,27v9,-150,-72,-214,-215,-214v-117,0,-203,28,-300,64r0,-185v131,-61,352,-93,512,-41v139,45,240,139,240,314r0,365xm469,-164v98,0,164,-49,212,-101r0,-148v-131,-34,-361,-45,-355,119v3,87,57,130,143,130","w":1054},"b":{"d":"380,-909v95,-71,272,-115,416,-55v166,69,265,227,265,463v0,248,-104,421,-276,495v-51,22,-103,31,-155,31v-128,0,-212,-59,-267,-128r-4,0r-23,103r-196,0r5,-227r0,-1221r237,0xm582,-164v175,0,234,-145,234,-325v0,-180,-61,-315,-230,-315v-80,0,-154,37,-204,77r0,464v46,49,107,99,200,99","w":1141,"k":{"]":40,")":40,"x":30}},"c":{"d":"610,-169v88,1,155,-20,218,-45r0,193v-113,49,-310,63,-443,16v-186,-66,-305,-214,-305,-464v0,-266,127,-425,322,-495v131,-48,297,-32,411,14r0,193v-57,-24,-121,-44,-200,-42v-193,4,-288,122,-288,324v0,187,96,303,285,306","w":903,"k":{"-":60,"\u00e7":30,"c":30}},"d":{"d":"325,-475v-1,176,62,311,222,311v98,0,164,-49,212,-101r0,-460v-51,-40,-119,-79,-204,-79v-168,0,-229,141,-230,329xm774,-103v-63,72,-151,128,-286,128v-276,0,-408,-198,-408,-490v0,-247,101,-417,269,-495v140,-65,318,-21,412,51r-2,-539r237,0r0,1160r6,288r-214,0r-10,-103r-4,0","w":1142},"e":{"d":"322,-414v13,171,125,248,307,248v108,0,207,-24,296,-54r0,189v-72,30,-224,58,-338,56v-321,-5,-507,-165,-507,-493v0,-254,108,-419,286,-492v55,-23,112,-33,171,-33v322,2,444,236,420,579r-635,0xm714,-599v-4,-122,-57,-209,-180,-209v-129,0,-184,92,-201,209r381,0","w":1050,"k":{"]":40,")":40,"y":10,"v":10}},"f":{"d":"552,-1473v65,0,137,13,185,29r0,188v-47,-12,-104,-23,-159,-23v-118,-1,-168,64,-167,183r0,127r269,0r0,195r-269,0r0,774r-237,0r0,-774r-164,0r0,-195r164,0r0,-115v2,-252,132,-384,378,-389","w":672,"k":{"\"":-70,"'":-70,"}":-90,"]":-70,")":-40,"-":40,".":80,",":50}},"g":{"d":"426,296v202,-1,341,-70,333,-271v-1,-32,6,-71,1,-99v-89,81,-271,134,-422,72v-165,-67,-258,-226,-258,-464v0,-248,99,-416,266,-494v51,-23,103,-33,157,-33v124,-1,216,61,271,133r4,0r10,-109r208,0r0,987v3,345,-216,472,-550,472v-117,0,-227,-15,-311,-46r0,-193v85,28,180,45,291,45xm325,-476v0,175,53,312,222,312v98,0,164,-46,212,-97r0,-433v-45,-54,-121,-106,-213,-106v-167,0,-221,144,-221,324","w":1126,"k":{"j":-15}},"h":{"d":"612,-794v-110,0,-179,56,-235,127r0,667r-237,0r0,-1448r237,0r-3,518v-2,32,-4,62,-8,88r4,0v65,-83,156,-151,304,-151v229,0,342,127,342,370r0,623r-237,0r0,-591v6,-133,-46,-203,-167,-203","w":1146,"k":{"]":40,")":40}},"i":{"d":"136,-969r237,0r0,969r-237,0r0,-969xm130,-1448r249,0r0,257r-249,0r0,-257","w":509},"j":{"d":"-8,296v125,0,173,-58,173,-188r0,-1077r237,0r0,1096v5,261,-136,359,-381,363v-69,1,-123,-8,-176,-23r0,-194v40,11,98,23,147,23xm159,-1448r249,0r0,257r-249,0r0,-257","w":538,"k":{"j":-15}},"k":{"d":"140,-1448r237,0r0,872r5,0r369,-393r293,0r-425,455r428,514r-287,0r-379,-451r-4,0r0,451r-237,0r0,-1448","w":1057,"k":{"-":110,"\u00f6":40,"\u011f":40,"\u00e7":40,"q":40,"o":40,"g":40,"e":40,"d":40,"c":40}},"l":{"d":"140,0r0,-1448r237,0r0,1448r-237,0","w":517},"m":{"d":"1295,-993v228,0,320,145,320,392r0,601r-237,0r0,-590v3,-119,-27,-204,-142,-204v-113,0,-188,62,-245,127r0,667r-237,0r0,-590v3,-119,-26,-204,-142,-204v-113,0,-188,62,-245,127r0,667r-237,0r0,-969r196,0r22,135r4,0v65,-88,167,-159,317,-159v142,0,243,66,289,175r4,0v71,-97,170,-175,333,-175","w":1745,"k":{"]":40,")":40}},"n":{"d":"612,-794v-110,1,-190,57,-245,127r0,667r-237,0r0,-969r196,0r22,135r4,0v74,-109,239,-193,424,-147v152,37,230,153,230,352r0,629r-237,0r0,-592v5,-127,-38,-203,-157,-202","w":1136,"k":{"]":40,")":40}},"o":{"d":"568,-169v172,0,241,-135,241,-315v0,-181,-69,-315,-243,-315v-172,0,-241,135,-241,315v0,182,70,315,243,315xm1020,-692v45,122,45,294,0,416v-67,180,-212,301,-452,301v-242,0,-388,-120,-454,-301v-45,-122,-45,-294,0,-416v67,-180,212,-301,452,-301v242,0,388,120,454,301","w":1134,"k":{"]":40,")":40,"x":30}},"p":{"d":"801,-489v0,-175,-52,-314,-217,-314v-95,0,-168,52,-217,110r0,432v47,50,111,97,206,97v171,0,228,-147,228,-325xm352,-860v56,-73,147,-136,273,-133v202,4,324,116,385,274v47,123,46,334,-2,455v-66,164,-184,283,-393,289v-106,3,-193,-46,-247,-99r-4,0r3,136r0,403r-237,0r0,-1434r208,0r10,109r4,0","w":1126,"k":{"]":30,")":30,"x":30}},"q":{"d":"325,-476v0,175,53,312,222,312v98,0,164,-46,212,-97r0,-430v-45,-53,-115,-113,-206,-113v-167,0,-228,143,-228,328xm503,-993v123,0,216,59,271,133r4,0r10,-109r208,0r0,1434r-237,0r0,-403v-1,-44,6,-96,1,-136v-68,53,-152,99,-272,99v-276,0,-408,-199,-408,-491v0,-245,99,-418,266,-494v51,-23,103,-33,157,-33","w":1126,"k":{";":-50,",":-50}},"r":{"d":"352,-834v58,-108,184,-177,354,-155r0,208v-156,-3,-278,39,-339,132r0,649r-237,0r0,-969r196,0r22,135r4,0","w":716,"k":{"-":110,".":110,",":100}},"s":{"d":"352,-167v103,0,207,-18,207,-114v0,-101,-124,-103,-209,-128v-139,-40,-267,-90,-264,-268v3,-215,148,-312,361,-316v117,-2,223,21,308,52r0,193v-84,-27,-181,-53,-288,-53v-83,0,-152,21,-152,97v0,100,116,105,197,126v148,39,284,92,281,279v-4,236,-180,321,-421,324v-112,1,-215,-19,-287,-51r0,-191v87,33,166,50,267,50","w":868},"t":{"d":"564,-174v57,1,112,-10,158,-23r0,196v-50,15,-135,27,-199,26v-211,-4,-332,-79,-332,-297r0,-502r-181,0r0,-195r181,0r0,-271r237,0r0,271r280,0r0,195r-280,0r0,471v-1,98,39,127,136,129","w":777,"k":{"-":40}},"u":{"d":"558,-169v140,0,201,-77,201,-228r0,-572r237,0r0,592v-4,274,-165,402,-438,402v-276,0,-438,-128,-438,-402r0,-592r237,0r0,567v-3,149,58,233,201,233","w":1116},"v":{"d":"996,-969r-375,969r-235,0r-376,-969r250,0r135,370v39,104,74,208,106,312r4,0v28,-90,63,-192,104,-306r135,-376r252,0","w":1006,"k":{"]":30,")":30,"?":50,".":100,",":70}},"w":{"d":"765,-706v-48,248,-121,472,-183,706r-233,0r-339,-969r250,0r125,406v29,94,54,185,76,273r4,0v19,-85,41,-176,67,-273r111,-406r250,0r109,406v23,86,46,177,67,273r4,0v23,-90,48,-181,76,-273r125,-406r250,0r-339,969r-233,0r-117,-425v-27,-95,-49,-189,-66,-281r-4,0","w":1534,"k":{"]":20,")":20,"?":40,".":60,",":60}},"x":{"d":"532,-337r-250,337r-272,0r383,-494r-360,-475r279,0r226,320r230,-320r280,0r-370,474r380,495r-277,0","w":1068,"k":{"?":50,"-":50,"\u00f6":30,"\u011f":30,"\u00e7":30,"q":30,"o":30,"g":30,"e":30,"d":30,"c":30}},"y":{"d":"10,-969r254,0r145,351v55,133,93,232,116,296r4,0v17,-50,51,-143,106,-278r150,-369r257,0r-624,1434r-234,0r222,-519","w":1052,"k":{"?":40,".":100,",":70}},"z":{"d":"554,-774r-473,0r0,-195r777,0r0,147r-480,627r515,0r0,195r-828,0r0,-134","w":958,"k":{"?":40,"-":60}},"\u00e7":{"d":"274,325v80,19,262,44,262,-47v0,-21,-15,-36,-44,-46v-29,-10,-74,-16,-136,-17r63,-210v-208,-58,-339,-208,-339,-474v0,-267,129,-425,324,-495v131,-46,297,-32,409,14r0,193v-57,-24,-121,-44,-200,-42v-194,4,-288,121,-288,324v0,187,96,302,285,306v84,1,159,-21,218,-45r0,193v-66,27,-165,49,-266,46r-24,93v99,17,186,59,186,168v0,195,-263,232,-450,185r0,-146","w":903,"k":{"-":60,"\u00e7":30,"c":30}},"\u011f":{"d":"437,-1427v9,101,44,171,138,171v93,0,129,-71,138,-171r203,0v-13,209,-121,337,-341,337v-219,0,-329,-128,-341,-337r203,0xm426,296v202,-1,341,-70,333,-271v-1,-32,6,-71,1,-99v-89,81,-271,134,-422,72v-165,-67,-258,-226,-258,-464v0,-248,99,-416,266,-494v51,-23,103,-33,157,-33v124,-1,216,61,271,133r4,0r10,-109r208,0r0,987v3,345,-216,472,-550,472v-117,0,-227,-15,-311,-46r0,-193v85,28,180,45,291,45xm325,-476v0,175,53,312,222,312v98,0,164,-46,212,-97r0,-433v-45,-54,-121,-106,-213,-106v-167,0,-221,144,-221,324","w":1126,"k":{"j":-15}},"\u0131":{"d":"136,-969r237,0r0,969r-237,0r0,-969","w":509},"\u00f6":{"d":"250,-1412r218,0r0,221r-218,0r0,-221xm660,-1412r218,0r0,221r-218,0r0,-221xm568,-169v172,0,241,-135,241,-315v0,-181,-69,-315,-243,-315v-172,0,-241,135,-241,315v0,182,70,315,243,315xm1020,-692v45,122,45,294,0,416v-67,180,-212,301,-452,301v-242,0,-388,-120,-454,-301v-45,-122,-45,-294,0,-416v67,-180,212,-301,452,-301v242,0,388,120,454,301","w":1134,"k":{"]":40,")":40,"x":30}},"\u015f":{"d":"175,325v79,20,262,43,262,-47v0,-21,-14,-36,-43,-46v-29,-10,-75,-16,-137,-17r57,-192v-88,-5,-170,-21,-229,-49r0,-191v89,33,165,50,267,50v103,0,207,-18,207,-114v0,-101,-124,-104,-209,-128v-140,-40,-264,-91,-264,-268v0,-215,148,-312,361,-316v117,-2,223,21,308,52r0,193v-84,-27,-181,-53,-288,-53v-83,0,-152,21,-152,97v0,98,115,105,197,126v148,38,284,92,281,279v-3,207,-139,293,-327,318r-27,99v99,17,186,59,186,168v0,195,-263,232,-450,185r0,-146","w":868},"\u00fc":{"d":"242,-1412r218,0r0,221r-218,0r0,-221xm652,-1412r218,0r0,221r-218,0r0,-221xm558,-169v140,0,201,-77,201,-228r0,-572r237,0r0,592v-4,274,-165,402,-438,402v-276,0,-438,-128,-438,-402r0,-592r237,0r0,567v-3,149,58,233,201,233","w":1116},"&":{"d":"954,-429v44,-78,74,-172,83,-285r231,0v-18,182,-78,328,-163,443r262,271r-338,0v-28,-36,-63,-73,-94,-107v-168,134,-551,194,-731,35v-66,-58,-114,-144,-114,-261v0,-203,133,-292,260,-374v-85,-87,-178,-168,-178,-332v0,-227,163,-324,396,-324v233,0,400,86,400,313v0,202,-134,286,-259,369xm335,-336v-5,165,180,194,327,146v46,-14,91,-36,133,-65r-297,-303v-77,52,-159,102,-163,222xm570,-1169v-109,0,-180,75,-144,181v23,68,85,112,133,160v75,-51,164,-97,164,-213v0,-83,-63,-128,-153,-128","w":1417},"`":{"d":"458,-1473r119,349r-184,0r-165,-349r230,0","w":800},",":{"d":"202,-267r277,0r-216,678r-253,0","w":649,"k":{"y":70,"v":60,"Y":150,"W":130,"V":160,"T":185}},";":{"d":"202,-267r277,0r-216,678r-253,0xm193,-900r269,0r0,267r-269,0r0,-267","w":649,"k":{"Y":110,"V":70,"T":140}},":":{"d":"165,-267r269,0r0,267r-269,0r0,-267xm165,-900r269,0r0,267r-269,0r0,-267","w":599,"k":{"Y":110,"V":70,"T":140}},".":{"d":"165,-267r269,0r0,267r-269,0r0,-267","w":599,"k":{"y":50,"w":60,"v":70,"\u00d6":50,"Y":195,"W":70,"V":140,"T":160,"O":50}},"-":{"d":"120,-608r441,0r0,215r-441,0r0,-215","w":681,"k":{"z":70,"x":50,"\u015e":40,"Z":60,"Y":150,"X":50,"W":30,"V":70,"T":140,"S":40,"J":130}},"\u2010":{"d":"120,-608r441,0r0,215r-441,0r0,-215","w":681},"\u00ad":{"d":"120,-608r441,0r0,215r-441,0r0,-215","w":681},"!":{"d":"432,-1338r-24,858r-217,0r-24,-858r265,0xm165,-267r269,0r0,267r-269,0r0,-267","w":599},"?":{"d":"411,-1363v279,-6,470,156,406,439v-40,178,-249,191,-323,338v-14,28,-19,64,-18,106r-223,0v-19,-202,87,-296,208,-372v59,-37,124,-75,124,-169v0,-104,-81,-148,-202,-148v-104,0,-211,31,-283,64r0,-193v84,-38,192,-63,311,-65xm235,-267r269,0r0,267r-269,0r0,-267","w":920},"\/":{"d":"8,249r380,-1587r208,0r-380,1587r-208,0","w":603},"|":{"d":"345,465r-205,0r0,-1913r205,0r0,1913","w":485},"(":{"d":"458,336v-238,-214,-417,-601,-340,-1068v46,-277,173,-488,340,-642r128,118v-158,174,-271,402,-271,737v0,335,113,563,271,737","w":626,"k":{"\u00f6":40,"\u00e7":40,"w":20,"v":30,"q":30,"o":40,"n":20,"m":20,"j":-90,"e":40,"d":40,"c":40,"\u015e":30,"\u00d6":80,"\u011e":80,"\u00c7":80,"S":30,"Q":80,"O":80,"G":80,"C":80}},")":{"d":"168,-1374v238,214,418,600,340,1067v-46,277,-172,490,-340,643r-128,-118v158,-174,271,-402,271,-737v0,-335,-113,-563,-271,-737","w":626},"[":{"d":"140,-1338r446,0r0,173r-241,0r0,1291r241,0r0,174r-446,0r0,-1638","w":646,"k":{"\u00f6":40,"\u00e7":40,"w":20,"v":30,"q":30,"o":40,"n":20,"m":20,"j":-110,"e":40,"d":40,"c":40,"\u00d6":80,"\u011e":80,"\u00c7":80,"Q":80,"O":80,"G":80,"C":80}},"]":{"d":"506,300r-446,0r0,-174r241,0r0,-1291r-241,0r0,-173r446,0r0,1638","w":646},"{":{"d":"444,-791v24,137,-45,240,-141,270r0,4v106,28,175,161,135,301v-24,84,-89,142,-89,237v0,115,103,133,231,131r0,173v-247,7,-446,-56,-446,-282v0,-157,114,-211,119,-363v3,-102,-70,-119,-173,-118r0,-162v103,1,176,-16,173,-118v-4,-148,-119,-210,-119,-363v0,-226,199,-289,446,-282r0,173v-129,-2,-231,16,-231,131v0,108,77,164,95,268","w":625,"k":{"j":-110}},"}":{"d":"175,-309v3,-112,67,-179,147,-208r0,-4v-114,-28,-179,-182,-127,-325v26,-72,81,-124,81,-213v0,-115,-101,-133,-231,-131r0,-173v247,-7,446,56,446,282v0,153,-115,215,-119,363v-3,102,70,119,173,118r0,162v-103,-1,-176,16,-173,118v5,152,119,206,119,363v0,226,-199,289,-446,282r0,-173v128,2,231,-16,231,-131v0,-125,-104,-187,-101,-330","w":625},"*":{"d":"593,-962r158,-100r171,-59r59,180r-171,58r-188,13r-1,5r144,120r114,157r-153,112r-113,-158r-69,-175r-7,0r-69,175r-113,158r-153,-112r114,-157r144,-120r-1,-5r-188,-13r-171,-58r59,-180r171,59r158,100r4,-4r-46,-182r0,-190r189,0r0,190r-46,182","w":1081},"^":{"d":"642,-1363r384,852r-217,0r-267,-628r-4,0r-267,628r-217,0r384,-852r204,0"},"~":{"d":"367,-426v-77,0,-104,38,-138,86r-144,-105v57,-104,132,-175,276,-175v141,0,220,98,351,98v77,0,104,-37,138,-86r144,105v-62,124,-184,204,-360,163v-92,-21,-165,-86,-267,-86"},"\\":{"d":"371,249r-380,-1587r208,0r380,1587r-208,0","w":603},"_":{"d":"0,142r1000,0r0,133r-1000,0r0,-133","w":1000},"'":{"d":"321,-787r-211,0r0,-551r211,0r0,551","w":431,"k":{".":100,"J":160,"A":145}},"\"":{"d":"321,-787r-211,0r0,-551r211,0r0,551xm698,-787r-211,0r0,-551r211,0r0,551","w":808,"k":{".":100,"J":160,"A":145}},"@":{"d":"1478,0v-116,1,-183,-43,-214,-125r-4,0v-76,92,-256,162,-414,104v-109,-40,-185,-128,-185,-275v0,-215,150,-311,368,-316v79,-2,141,11,198,25v9,-142,-68,-203,-204,-203v-112,0,-192,27,-285,61r0,-176v83,-38,191,-64,311,-64v237,0,403,98,403,323r0,390v-1,56,11,101,66,98v127,-7,178,-116,206,-233v35,-145,17,-332,-36,-449v-102,-225,-311,-363,-625,-363v-368,0,-578,185,-667,463v-57,177,-55,392,6,562v98,270,326,434,695,434v209,0,396,-39,543,-99r0,160v-206,79,-530,131,-795,71v-326,-73,-547,-270,-633,-585v-54,-198,-38,-449,30,-627v123,-323,387,-539,822,-539v400,0,662,188,790,470v103,226,72,594,-61,747v-73,84,-172,144,-315,146xm1026,-181v93,0,155,-47,201,-96r0,-141v-124,-31,-343,-44,-337,113v3,83,54,124,136,124","w":2098},"\u20ac":{"d":"474,-581v-5,37,-2,79,0,117r300,0r0,161r-265,0v46,94,132,127,273,127v81,0,160,-17,222,-38r0,200v-65,26,-153,39,-243,39v-275,0,-443,-109,-504,-328r-129,0r0,-161r104,0v-2,-39,-3,-79,1,-117r-105,0r0,-161r132,0v64,-216,229,-349,503,-349v85,1,171,14,231,39r0,200v-58,-20,-139,-38,-216,-38v-132,0,-221,49,-267,148r338,0r0,161r-375,0","k":{"5":40}},"$":{"d":"965,-325v0,193,-151,271,-344,292r0,103r-159,0r0,-98v-120,-4,-247,-21,-328,-58r0,-196v97,35,198,58,328,60r0,-219v-181,-27,-348,-76,-348,-285v0,-205,157,-275,348,-299r0,-103r159,0r0,100v100,6,208,23,287,51r0,198v-103,-33,-198,-52,-287,-56r0,222v179,29,344,80,344,288xm462,-830v-79,9,-129,27,-129,94v0,70,58,83,129,98r0,-192xm745,-321v0,-69,-55,-82,-124,-96r0,188v83,-11,124,-41,124,-92","k":{"9":50,"7":40,"6":30,"5":50,"3":40,"2":50}},"#":{"d":"435,-981r73,-357r190,0r-73,357r240,0r73,-357r190,0r-73,357r196,0r0,182r-234,0r-53,260r205,0r0,182r-243,0r-73,357r-190,0r73,-357r-240,0r-73,357r-190,0r73,-357r-196,0r0,-182r234,0r53,-260r-205,0r0,-182r243,0xm534,-539r240,0r53,-260r-240,0","w":1361},"0":{"d":"528,-169v158,0,217,-137,217,-315v0,-179,-58,-315,-217,-315v-159,0,-218,136,-218,315v0,179,58,315,218,315xm873,-848v102,112,152,367,87,566v-59,182,-194,307,-432,307v-236,0,-371,-127,-432,-307v-41,-121,-41,-283,0,-404v62,-180,195,-305,432,-307v158,-1,268,61,345,145","w":1055,"k":{"3":40,"2":40}},"1":{"d":"427,-201r0,-516r-337,96r0,-210r392,-138r182,0r0,768r282,0r0,201r-836,0r0,-201r317,0","w":1013,"k":{"7":40,"3":50}},"2":{"d":"471,-993v226,0,386,97,386,320v0,184,-121,274,-233,365v-46,38,-99,73,-154,111r0,4v92,-5,160,-8,205,-8r262,0r0,201r-847,0r0,-145r200,-141v108,-80,210,-159,280,-257v28,-40,42,-79,42,-118v-2,-97,-75,-128,-173,-128v-126,0,-238,42,-339,91r0,-201v100,-51,221,-94,371,-94","w":1022,"k":{"7":40,"5":60,"3":60,"2":40,"0":40}},"3":{"d":"614,-620v0,-239,-368,-177,-518,-109r0,-205v129,-54,354,-85,510,-30v144,52,253,153,253,337v0,152,-68,252,-184,304r0,4v129,40,214,139,214,304v0,302,-203,428,-513,428v-115,0,-221,-22,-301,-59r0,-206v76,34,177,63,289,62v168,-1,280,-64,280,-223v0,-144,-93,-195,-246,-195r-156,0r0,-201r106,0v163,4,266,-57,266,-211","w":999},"4":{"d":"318,-195r2,3v79,-10,197,-9,295,-9r0,-248r237,0r0,248r174,0r0,201r-174,0r0,387r-237,0r0,-387r-550,0r0,-169r365,-800r242,0","w":1081},"5":{"d":"662,-27v7,-255,-305,-246,-538,-210r103,-732r679,0r0,216r-477,0r-44,308v318,-13,522,115,522,413v0,222,-128,349,-301,411v-152,55,-385,37,-516,-23r0,-207v86,36,169,61,275,61v178,0,292,-67,297,-237","w":1002,"k":[40]},"6":{"d":"340,-573v4,212,46,395,241,395v139,0,205,-88,206,-232v1,-147,-71,-217,-215,-217v-87,1,-170,22,-232,54xm959,-1106v-102,-39,-244,-80,-363,-32v-139,56,-212,189,-243,362v173,-84,437,-64,555,51v71,69,125,165,124,302v-2,216,-103,352,-263,415v-116,46,-288,44,-396,-10v-184,-91,-278,-287,-278,-562v0,-338,126,-591,343,-720v137,-82,386,-75,521,-10r0,204","w":1127,"k":{"7":70,"5":30,"2":40}},"7":{"d":"59,-753r0,-216r865,0r0,162r-566,1194r-243,0r540,-1140r-596,0","w":1000,"k":{"5":50,"4":50,"2":40}},"8":{"d":"569,-1169v-118,0,-196,60,-196,179v0,122,85,185,196,209v111,-24,196,-87,196,-209v0,-119,-77,-179,-196,-179xm345,-371v0,132,91,198,224,202v165,6,266,-134,207,-292v-30,-80,-108,-120,-207,-133v-129,18,-224,79,-224,223xm810,-692v133,49,228,149,228,329v0,197,-123,305,-278,359v-112,39,-270,39,-382,0v-156,-54,-278,-161,-278,-359v0,-180,95,-280,228,-329r0,-4v-112,-50,-200,-140,-200,-291v0,-194,119,-301,270,-351v170,-56,386,-11,483,74v72,62,129,150,129,277v0,151,-88,242,-200,291r0,4","w":1138,"k":{"7":30,"2":50}},"9":{"d":"122,145v74,37,177,65,277,65v247,0,350,-154,381,-401v-109,51,-294,75,-428,27v-154,-54,-257,-177,-257,-382v0,-212,103,-348,259,-412v115,-48,291,-46,400,7v193,93,279,305,279,594v0,376,-128,646,-415,741v-150,50,-376,31,-496,-32r0,-207xm340,-561v-1,145,68,220,209,220v89,0,176,-20,238,-54v-8,-212,-45,-395,-245,-395v-137,0,-201,88,-202,229","w":1128},"%":{"d":"1378,-182v74,-75,61,-301,31,-421v-14,-56,-84,-101,-131,-53v-74,77,-60,301,-31,421v14,56,84,101,131,53xm1328,15v-236,0,-321,-186,-321,-434v0,-249,85,-434,321,-434v236,0,321,186,321,434v0,248,-85,434,-321,434xm1399,-1273r-976,1308r-130,-100r976,-1308xm416,-692v74,-75,61,-301,31,-421v-14,-56,-84,-101,-131,-53v-74,77,-60,301,-31,421v14,56,84,101,131,53xm366,-495v-236,0,-321,-186,-321,-434v0,-249,85,-434,321,-434v236,0,321,186,321,434v0,248,-85,434,-321,434","w":1694},"+":{"d":"114,-627r326,0r0,-344r200,0r0,344r326,0r0,191r-326,0r0,343r-200,0r0,-343r-326,0r0,-191"},"=":{"d":"966,-619r-852,0r0,-191r852,0r0,191xm966,-234r-852,0r0,-191r852,0r0,191"},"<":{"d":"114,-639r852,-384r0,217r-628,267r0,4r628,267r0,217r-852,-384r0,-204"},">":{"d":"966,-435r-852,384r0,-217r628,-267r0,-4r-628,-267r0,-217r852,384r0,204"},"\u20ab":{"d":"761,-909r-2,-197r-253,0r0,-185r253,0r0,-157r237,0r0,157r140,0r0,185r-140,0r0,818r6,288r-214,0r-10,-103r-4,0v-63,73,-151,128,-286,128v-198,0,-314,-112,-373,-267v-46,-121,-45,-329,1,-452v62,-169,182,-294,395,-299v110,-3,182,43,250,84xm325,-475v-1,176,61,311,222,311v98,0,164,-49,212,-101r0,-460v-51,-40,-118,-79,-202,-79v-170,0,-231,141,-232,329xm134,142r922,0r0,167r-922,0r0,-167","w":1142}}});
/*!
 * The following copyright notice may not be removed under any circumstances.
 * 
 * Copyright:
 * © 2008 Microsoft Corporation. All Rights Reserved.
 * 
 * Trademark:
 * Corbel is either a registered trademark or a trademark of Microsoft Corporation
 * in the United States and/or other countries.
 * 
 * Description:
 * Corbel is designed to give an uncluttered and clean appearance on screen. The
 * letter forms are open with soft, flowing curves. It is legible, clear and
 * functional at small sizes. At larger sizes the detailing and style of the shapes
 * is more apparent resulting in a modern sans serif type with a wide range of
 * possible uses.
 * 
 * Manufacturer:
 * Microsoft Corporation
 * 
 * Designer:
 * Jeremy Tankard
 * 
 * Vendor URL:
 * http://www.microsoft.com/typography/ctfonts
 * 
 * License information:
 * http://www.microsoft.com/typography/fonts/default.aspx
 */
Cufon.registerFont({"w":1050,"face":{"font-family":"Corbel Italic","font-weight":400,"font-style":"italic","font-stretch":"normal","units-per-em":"2048","panose-1":"2 11 5 3 2 2 4 9 2 4","ascent":"1523","descent":"-525","x-height":"25","bbox":"-300 -1670 1909 490","underline-thickness":"120","underline-position":"-130","slope":"-12","unicode-range":"U+000D-U+20AC"},"glyphs":{" ":{"w":410,"k":{"\u00dc":90,"\u015e":80,"\u00d6":85,"\u011e":85,"\u00c7":85,"Z":70,"Y":200,"X":80,"W":125,"V":125,"U":90,"T":220,"S":80,"Q":85,"O":85,"J":100,"G":85,"C":85,"A":60}},"\r":{"w":410},"\u00a0":{"w":410},"A":{"d":"-40,0r741,-1338r137,0r264,1338r-165,0r-77,-403r-499,0r-221,403r-180,0xm441,-550r391,0r-48,-257v-22,-118,-39,-216,-50,-293r-4,0v-61,143,-200,389,-289,550","w":1252,"k":{"\"":140,"'":140,"-":55,"\u00fc":25,"\u00f6":30,"\u011f":30,"\u00e7":30,"y":90,"w":70,"v":80,"u":25,"t":40,"q":30,"o":30,"l":20,"g":30,"e":30,"d":30,"c":30,"b":30,"a":30,"\u00d6":60,"\u011e":60,"\u00c7":60,"Y":120,"W":120,"V":160,"T":100,"Q":60,"O":60,"G":60,"C":60}},"B":{"d":"1130,-1020v0,190,-117,291,-274,333r0,4v132,27,226,106,226,259v0,329,-300,421,-655,424r-352,0r279,-1338r313,0v223,-5,380,57,444,212v13,32,19,68,19,106xm898,-348v59,-167,-63,-264,-243,-264r-290,0r-97,465r183,0v223,3,392,-44,447,-201xm960,-1011v0,-207,-259,-180,-474,-180r-90,432r244,0v183,-3,320,-71,320,-252","w":1210,"k":{")":30,"Y":80,"W":40,"V":70,"T":30}},"C":{"d":"1149,-1169v-115,-46,-302,-73,-436,-21v-259,100,-405,339,-413,686v-6,264,142,383,396,384v107,1,211,-24,292,-50r-31,149v-79,29,-185,46,-289,46v-338,0,-538,-174,-538,-518v0,-338,139,-578,336,-733v132,-104,360,-166,587,-122v49,10,91,21,126,34","w":1154,"k":{"-":50,"\u00fc":20,"\u00f6":30,"\u011f":30,"\u00e7":30,"y":70,"w":70,"v":70,"u":20,"t":20,"q":30,"o":30,"g":30,"e":30,"d":30,"c":30,"a":30,"\u00d6":30,"\u00c7":30,"Q":30,"O":30,"C":30}},"D":{"d":"1102,-842v-6,-251,-154,-351,-414,-349r-203,0r-217,1044r134,0v429,4,634,-212,692,-579v7,-42,8,-81,8,-116xm691,-1338v365,0,581,159,581,513v0,355,-159,590,-398,723v-127,70,-279,102,-482,102r-317,0r278,-1338r338,0","w":1332,"k":{")":30,".":40,",":30,"Y":50,"X":30,"V":40,"T":40,"J":20}},"E":{"d":"268,-147r639,0r-30,147r-802,0r278,-1338r765,0r-31,147r-602,0r-90,432r538,0r-30,147r-538,0","w":1073},"F":{"d":"75,0r278,-1338r751,0r-31,147r-588,0r-89,432r523,0r-30,147r-524,0r-127,612r-163,0","w":979,"k":{".":95,",":130,"J":80,"A":50}},"G":{"d":"661,25v-336,0,-521,-180,-521,-520v0,-341,145,-575,346,-732v175,-137,547,-175,799,-80r-30,145v-130,-50,-340,-80,-495,-29v-277,94,-446,322,-446,680v0,247,112,391,355,391v225,0,331,-108,377,-306r27,-115r-306,0r31,-147r468,0v-42,168,-62,371,-142,496v-91,142,-240,217,-463,217","w":1375,"k":{"z":30,"y":30,"w":30,"v":30,"Y":120,"W":115,"V":120,"T":50}},"H":{"d":"394,-759r664,0r120,-579r163,0r-278,1338r-163,0r127,-612r-662,0r-127,612r-163,0r278,-1338r163,0","w":1340},"I":{"d":"75,0r278,-1338r163,0r-278,1338r-163,0","w":511},"J":{"d":"10,-145v67,28,189,36,255,3v60,-29,88,-83,104,-160r216,-1036r163,0r-220,1059v-30,221,-200,336,-464,297v-31,-5,-59,-13,-84,-22","w":743},"K":{"d":"382,-677r701,-661r206,0r-723,678r494,660r-191,0r-491,-655r-3,0r-137,655r-163,0r278,-1338r163,0r-137,661r3,0","w":1169,"k":{"-":85,"\u00fc":30,"\u00f6":40,"\u011f":40,"\u00e7":40,"y":60,"w":80,"v":80,"u":30,"q":40,"o":40,"g":40,"e":40,"d":40,"c":40,"a":40,"\u00d6":60,"\u011e":60,"\u00c7":60,"Q":60,"O":60,"G":60,"C":60}},"L":{"d":"268,-147r639,0r-30,147r-802,0r278,-1338r163,0","w":1017,"k":{"\"":160,"'":160,"?":70,"-":125,"y":70,"w":70,"v":80,"t":20,"\u00d6":50,"\u011e":50,"\u00c7":50,"Y":215,"W":120,"V":170,"T":170,"Q":50,"O":50,"G":50,"C":50}},"M":{"d":"773,-279v59,-113,108,-204,148,-273r461,-786r243,0r-278,1338r-163,0r147,-703v17,-83,36,-163,55,-241v19,-78,36,-145,52,-204r-9,0v-188,375,-455,781,-670,1148r-80,0r-141,-742v-27,-139,-50,-274,-69,-406r-9,0v-23,158,-47,297,-72,418r-150,730r-163,0r278,-1338r226,0r150,815v17,94,31,175,40,244r4,0","w":1620},"N":{"d":"1008,-241r40,-254r175,-843r163,0r-278,1338r-152,0r-434,-937v-24,-55,-47,-110,-66,-163r-4,0v-7,55,-16,113,-25,172v-9,59,-20,115,-31,167r-158,761r-163,0r278,-1338r150,0r447,966v20,44,38,88,54,131r4,0","w":1381},"O":{"d":"865,-1363v320,0,502,170,502,492v0,337,-130,593,-321,753v-99,83,-230,143,-403,143v-320,0,-503,-169,-503,-492v0,-337,129,-593,321,-753v99,-83,231,-143,404,-143xm310,-479v-2,231,107,359,334,359v208,0,326,-118,412,-250v83,-127,139,-291,141,-489v2,-231,-107,-359,-334,-359v-208,0,-327,118,-413,250v-83,127,-138,291,-140,489","w":1427,"k":{")":30,".":40,",":30,"Y":60,"X":30,"V":40,"T":40,"J":40}},"P":{"d":"1141,-1021v0,396,-377,511,-788,465r-115,556r-163,0r278,-1338r327,0v229,-3,384,57,445,218v12,31,16,64,16,99xm964,-944v39,-180,-85,-247,-267,-247r-212,0r-101,489v270,37,532,-20,580,-242","w":1166,"k":{"]":40,")":40,"?":50,"-":80,".":200,",":205,"\u00fc":30,"\u00f6":50,"\u011f":50,"\u00e7":50,"u":30,"q":50,"o":50,"g":50,"e":50,"d":50,"c":50,"a":50,"Z":60,"X":60,"J":150,"A":110}},"Q":{"d":"860,-1363v316,0,497,173,497,492v0,265,-94,472,-221,619v-46,52,-97,94,-153,125r0,4v91,-13,188,-17,302,-14r-31,147v-217,-20,-431,6,-648,6v-306,0,-476,-175,-476,-483v0,-339,131,-593,324,-753v100,-83,232,-143,406,-143xm300,-479v-2,231,107,359,334,359v208,0,326,-118,412,-250v83,-127,139,-291,141,-489v2,-231,-107,-359,-334,-359v-208,0,-327,118,-413,250v-83,127,-138,291,-140,489","w":1427},"R":{"d":"1165,-1009v0,273,-184,388,-429,434r0,4r306,571r-182,0r-291,-554r-216,0r-115,554r-163,0r278,-1338r350,0v264,-4,462,90,462,329xm984,-920v52,-183,-73,-271,-271,-271r-228,0r-101,490r151,0v229,2,401,-50,449,-219","w":1190,"k":{"-":60,"Y":40}},"S":{"d":"419,-120v221,0,392,-71,392,-282v0,-218,-264,-202,-415,-278v-101,-51,-185,-118,-185,-266v0,-282,193,-412,480,-417v147,-3,287,35,386,77r-30,148v-91,-43,-222,-82,-350,-80v-178,3,-316,70,-316,242v0,200,234,194,378,256v125,54,223,133,223,308v0,231,-144,351,-330,407v-197,59,-481,27,-614,-60r31,-144v91,52,209,89,350,89","w":1120,"k":{")":50,"y":50,"w":40,"v":60,"t":30,"Y":40,"W":40,"V":40}},"T":{"d":"503,0r-163,0r247,-1191r-415,0r31,-147r993,0r-31,147r-415,0","w":1059,"k":{"-":110,".":120,":":120,";":115,",":115,"\u00fc":70,"\u015f":60,"\u00f6":80,"\u011f":80,"\u00e7":80,"z":70,"y":80,"x":60,"w":80,"v":80,"u":70,"s":60,"r":70,"q":80,"p":70,"o":80,"n":70,"m":70,"g":80,"e":80,"d":80,"c":80,"a":80,"J":80,"A":60}},"U":{"d":"308,-450v-29,205,67,334,271,330v277,-6,387,-174,436,-410r167,-808r163,0r-177,858v-62,305,-235,500,-595,505v-298,4,-463,-164,-427,-471v4,-30,9,-62,16,-94r165,-798r163,0","w":1320,"k":{",":30}},"V":{"d":"1142,-1338r180,0r-731,1338r-139,0r-242,-1338r161,0r131,747v26,147,44,270,55,368r4,0v155,-352,399,-765,581,-1115","w":1172,"k":{"-":40,".":60,",":80,"\u015f":30,"\u00f6":50,"\u011f":50,"\u00e7":50,"s":30,"q":50,"o":50,"g":50,"e":50,"d":50,"c":50,"a":50,"J":40,"A":50}},"W":{"d":"1016,-717v-5,-124,-7,-217,-7,-278v1,-63,1,-98,1,-103r-5,0v-40,108,-83,222,-132,339r-320,759r-153,0r-190,-1338r163,0r94,734v25,199,38,324,40,376r4,0v27,-79,74,-201,142,-366r306,-744r171,0r36,758v5,129,9,246,11,352r4,0v21,-53,44,-108,69,-165v25,-57,57,-127,98,-206r381,-739r180,0r-707,1338r-153,0","w":1759,"k":{"-":40,".":60,",":80,"\u015f":30,"\u00f6":50,"\u011f":50,"\u00e7":50,"s":30,"q":50,"o":50,"g":50,"e":50,"d":50,"c":50,"a":50,"J":30,"A":50}},"X":{"d":"121,0r-195,0r609,-696r-292,-642r176,0r238,526r4,0r459,-526r195,0r-588,671r305,667r-176,0r-251,-550r-4,0","w":1188,"k":{"-":60,"\u00f6":30,"\u011f":30,"\u00e7":30,"q":30,"o":30,"g":30,"e":30,"d":30,"c":30,"a":30,"\u00d6":40,"\u011e":30,"\u00c7":30,"Q":30,"O":40,"G":30,"C":30}},"Y":{"d":"400,0r113,-541r-313,-797r165,0r242,638r4,0r427,-638r189,0r-551,798r-113,540r-163,0","w":1097,"k":{"-":70,".":80,":":50,";":40,",":50,"\u00fc":60,"\u015f":60,"\u00f6":90,"\u011f":90,"\u00e7":90,"z":50,"u":60,"s":60,"r":40,"q":90,"p":40,"o":90,"n":40,"m":40,"g":90,"e":90,"d":90,"c":90,"a":90,"J":70,"A":50}},"Z":{"d":"955,-1191r-698,0r31,-147r924,0r-21,102r-923,1085r0,4r728,0r-30,147r-956,0r21,-102r924,-1085r0,-4","w":1162,"k":{"-":50}},"\u00c7":{"d":"1149,-1169v-115,-46,-302,-73,-436,-21v-259,100,-405,339,-413,686v-6,264,142,383,396,384v107,1,211,-24,292,-50r-31,149v-91,33,-215,52,-337,44r-44,105v90,13,159,54,161,152v5,203,-241,243,-425,186r24,-112v83,33,265,37,265,-64v0,-79,-100,-69,-187,-75r89,-208v-233,-54,-373,-213,-373,-500v0,-338,139,-578,336,-733v132,-104,360,-166,587,-122v49,10,91,21,126,34","w":1154,"k":{"-":50,"\u00fc":20,"\u00f6":30,"\u011f":30,"\u00e7":30,"y":70,"w":70,"v":70,"u":20,"t":20,"q":30,"o":30,"g":30,"e":30,"d":30,"c":30,"a":30,"\u00d6":30,"\u00c7":30,"Q":30,"O":30,"C":30}},"\u011e":{"d":"716,-1670v-7,88,46,142,134,140v111,-2,180,-54,212,-140r140,0v-50,155,-164,261,-360,261v-165,0,-268,-90,-252,-261r126,0xm661,25v-336,0,-521,-180,-521,-520v0,-341,145,-575,346,-732v175,-137,547,-175,799,-80r-30,145v-130,-50,-340,-80,-495,-29v-277,94,-446,322,-446,680v0,247,112,391,355,391v225,0,331,-108,377,-306r27,-115r-306,0r31,-147r468,0v-42,168,-62,371,-142,496v-91,142,-240,217,-463,217","w":1375,"k":{"z":30,"y":30,"w":30,"v":30,"Y":120,"W":115,"V":120,"T":50}},"\u0130":{"d":"359,-1448r35,-171r163,0r-35,171r-163,0xm64,0r278,-1338r163,0r-278,1338r-163,0","w":511},"\u00d6":{"d":"617,-1448r35,-169r161,0r-35,169r-161,0xm1000,-1448r35,-169r161,0r-35,169r-161,0xm865,-1363v320,0,502,170,502,492v0,337,-130,593,-321,753v-99,83,-230,143,-403,143v-320,0,-503,-169,-503,-492v0,-337,129,-593,321,-753v99,-83,231,-143,404,-143xm310,-479v-2,231,107,359,334,359v208,0,326,-118,412,-250v83,-127,139,-291,141,-489v2,-231,-107,-359,-334,-359v-208,0,-327,118,-413,250v-83,127,-138,291,-140,489","w":1427,"k":{")":30,".":40,",":30,"Y":60,"X":30,"V":40,"T":40,"J":40}},"\u015e":{"d":"419,-120v221,0,392,-71,392,-282v0,-218,-264,-202,-415,-278v-101,-51,-185,-118,-185,-266v0,-282,193,-412,480,-417v147,-3,287,35,386,77r-30,148v-91,-43,-222,-82,-350,-80v-178,3,-316,70,-316,242v0,200,234,194,378,256v125,54,223,133,223,308v0,291,-225,414,-503,435r-43,105v90,13,159,54,161,152v5,203,-241,243,-425,186r24,-112v82,33,265,37,265,-64v0,-79,-100,-68,-187,-75r82,-193v-114,-8,-245,-37,-318,-87r31,-144v91,52,209,89,350,89","w":1120,"k":{")":50,"y":50,"w":40,"v":60,"t":30,"Y":40,"W":40,"V":40}},"\u00dc":{"d":"578,-1448r35,-169r161,0r-35,169r-161,0xm961,-1448r35,-169r161,0r-35,169r-161,0xm308,-450v-29,205,67,334,271,330v277,-6,387,-174,436,-410r167,-808r163,0r-177,858v-62,305,-235,500,-595,505v-298,4,-463,-164,-427,-471v4,-30,9,-62,16,-94r165,-798r163,0","w":1320,"k":{",":30}},"a":{"d":"274,-538v-47,146,-81,431,109,431v142,0,218,-111,273,-219v58,-113,73,-272,106,-411v-41,-54,-92,-106,-187,-106v-184,0,-254,158,-301,305xm809,15v-116,-2,-157,-50,-155,-171r-4,0v-69,97,-156,176,-307,181v-304,10,-290,-406,-203,-639v55,-147,143,-272,281,-333v43,-19,91,-28,142,-28v106,0,185,48,223,120r4,0r46,-95r126,0r-153,731v-13,61,-14,106,54,103v19,0,41,-2,66,-6r-27,128v-28,6,-59,9,-93,9","w":1037,"k":{"-":50,".":-30,":":-30}},"b":{"d":"391,25v-217,2,-326,-164,-279,-388r227,-1085r155,0r-130,621r4,0v58,-79,133,-148,267,-148v191,0,289,129,289,332v0,316,-130,544,-364,639v-50,20,-107,29,-169,29xm730,-400v60,-162,74,-447,-137,-442v-119,3,-190,76,-239,161v-55,95,-69,240,-94,363v-24,119,34,216,150,211v188,-8,266,-148,320,-293","w":999,"k":{"x":20}},"c":{"d":"516,20v-267,29,-437,-101,-431,-362v7,-300,132,-513,358,-604v126,-51,312,-25,411,24r-27,132v-88,-41,-233,-74,-335,-26v-162,74,-244,242,-252,464v-5,161,73,242,230,242v93,0,191,-30,251,-62r-28,142v-47,25,-111,43,-177,50","w":849,"k":{"}":-50,"]":-40,")":-50,"-":50,"\u00e7":20,"c":20}},"d":{"d":"275,-540v-50,150,-78,433,115,433v143,0,220,-110,276,-219v58,-113,73,-272,106,-411v-41,-56,-99,-105,-196,-105v-182,0,-253,157,-301,302xm660,-156v-69,97,-158,176,-310,181v-309,11,-301,-409,-208,-645v72,-182,182,-346,420,-355v112,-4,189,49,230,121r4,0r124,-594r155,0r-261,1260v-22,78,57,79,125,66r-27,128v-22,6,-63,9,-93,9v-116,-2,-157,-50,-155,-171r-4,0","k":{"-":50,".":-30,":":-30}},"e":{"d":"598,-975v171,0,296,75,296,246v0,214,-178,269,-376,301v-80,13,-173,18,-276,21v-24,223,103,322,328,291v74,-10,146,-29,203,-56r-28,142v-70,31,-167,56,-271,55v-253,-1,-389,-131,-389,-379v0,-302,135,-509,361,-596v47,-18,97,-25,152,-25xm739,-735v-2,-113,-153,-128,-249,-87v-112,47,-184,149,-219,276v181,-2,350,-14,436,-102v22,-23,32,-53,32,-87","w":934},"f":{"d":"870,-1322v-97,-27,-217,-18,-280,42v-68,64,-92,212,-116,330r261,0r-28,133r-261,0r-197,948v-43,243,-196,392,-490,352v-25,-3,-43,-9,-54,-13r25,-132v56,20,150,23,206,2v108,-41,142,-148,170,-278r184,-879r-175,0r28,-133r175,0r34,-165v40,-261,253,-415,542,-336","w":644,"k":{"\"":-85,"'":-85,"}":-80,"]":-115,")":-105,"?":-60,"!":-60,"-":60,".":60,",":50}},"g":{"d":"286,-538v-50,149,-80,431,113,431v143,0,220,-111,277,-219v59,-113,72,-272,105,-411v-41,-55,-96,-106,-193,-106v-183,0,-253,159,-302,305xm-18,303v107,47,286,70,413,30v191,-61,228,-273,271,-484r-4,0v-68,96,-152,171,-303,176v-307,9,-298,-404,-207,-639v57,-147,144,-272,284,-333v44,-19,92,-28,143,-28v106,0,189,49,227,121r4,0r46,-96r126,0r-208,1008v-57,269,-213,430,-531,432v-111,0,-205,-22,-288,-51","w":1022,"k":{"j":-30,"f":-30}},"h":{"d":"818,-666v17,-114,-34,-180,-140,-177v-206,7,-312,143,-349,319r-109,524r-155,0r301,-1448r155,0r-131,627r4,0v73,-86,176,-153,322,-154v187,-1,299,115,258,313r-136,662r-155,0r121,-585v7,-34,12,-61,14,-81","w":1070},"i":{"d":"55,0r197,-950r155,0r-197,950r-155,0xm294,-1171r35,-171r163,0r-35,171r-163,0","w":437,"k":{"}":-20,"]":-20}},"j":{"d":"-274,339v88,25,215,23,259,-37v35,-48,54,-110,70,-187r221,-1065r155,0r-233,1127v-38,189,-128,313,-355,313v-51,0,-110,-10,-143,-20xm318,-1171r35,-171r163,0r-35,171r-163,0","w":461,"k":{"j":-40}},"k":{"d":"818,19v-314,34,-323,-292,-449,-480v-12,-18,-29,-29,-46,-36r-103,497r-155,0r301,-1448r155,0r-191,919r5,0r452,-421r212,0r-492,442v113,118,90,380,305,397v10,0,21,-1,33,-3","w":929,"k":{"-":60,"\u00f6":20,"\u011f":20,"\u00e7":20,"q":20,"o":20,"g":20,"e":20,"d":20,"c":20,"a":20}},"l":{"d":"262,-233v-15,66,-19,114,52,113v22,0,44,-2,66,-6r-27,132v-24,6,-62,9,-94,9v-106,0,-168,-36,-169,-137v0,-20,3,-43,8,-70r263,-1256r155,0","w":491},"m":{"d":"694,-975v136,0,215,71,230,195r4,0v76,-105,174,-195,342,-195v177,0,275,125,236,313r-136,662r-155,0r125,-604v8,-39,12,-70,13,-106v2,-86,-47,-136,-127,-133v-141,5,-226,95,-282,193v-21,39,-36,81,-45,126r-109,524r-155,0r125,-604v8,-39,11,-70,13,-106v8,-136,-134,-158,-236,-108v-111,53,-190,158,-218,294r-109,524r-155,0r198,-950r127,0r0,129r4,0v70,-86,171,-154,310,-154","w":1602},"n":{"d":"811,-710v0,-144,-160,-155,-268,-108v-118,51,-195,155,-224,294r-109,524r-155,0r198,-950r127,0r0,129r4,0v75,-87,178,-153,329,-154v184,-1,291,118,251,313r-136,662r-155,0r122,-590v11,-49,16,-89,16,-120","w":1060},"o":{"d":"746,-381v66,-173,74,-474,-155,-462v-181,8,-258,138,-311,275v-26,66,-40,146,-40,229v0,139,56,232,195,232v180,0,258,-137,311,-274xm600,-975v275,-3,382,225,328,507v-42,217,-150,389,-338,464v-49,19,-105,29,-166,29v-269,2,-379,-215,-326,-493v42,-220,149,-399,337,-477v49,-20,104,-30,165,-30","w":1006,"k":{"x":20}},"p":{"d":"757,-408v51,-151,78,-442,-118,-434v-140,6,-218,112,-273,220v-62,120,-76,289,-111,435v46,44,103,84,194,80v185,-8,258,-155,308,-301xm610,-3v-124,53,-307,25,-376,-57r-4,0r-110,525r-155,0r294,-1415r127,0r0,130r4,0v68,-83,146,-150,285,-155v309,-10,312,406,219,647v-55,144,-144,265,-284,325","w":1023,"k":{"x":20}},"q":{"d":"276,-542v-50,149,-81,435,113,435v143,0,221,-111,277,-219v59,-113,73,-272,106,-411v-42,-54,-96,-106,-192,-106v-184,0,-255,155,-304,301xm568,-975v106,0,191,49,228,121r4,0r46,-96r126,0r-295,1415r-156,0r127,-605r-4,-1v-68,91,-150,163,-298,166v-303,6,-294,-410,-204,-645v56,-145,143,-270,283,-328v44,-18,92,-27,143,-27","w":1012},"r":{"d":"384,-821v69,-96,185,-176,357,-148r-31,151v-229,-27,-352,106,-391,294r-109,524r-155,0r198,-950r127,0r0,129r4,0","w":651,"k":{"-":60,".":60,",":60}},"s":{"d":"749,-782v-131,-68,-448,-118,-448,87v0,130,146,133,241,177v88,41,162,93,162,222v0,277,-273,358,-550,304v-52,-11,-94,-25,-124,-43r29,-130v69,29,152,59,250,58v140,-1,243,-46,243,-169v0,-148,-180,-143,-280,-200v-69,-40,-121,-90,-125,-197v-11,-315,391,-358,629,-237","w":816},"t":{"d":"334,-285v-26,101,-10,175,110,175v43,0,109,-10,145,-19r-27,135v-36,10,-108,19,-159,19v-183,0,-269,-95,-232,-272r118,-570r-184,0r28,-133r184,0r54,-260r156,0r-54,260r251,0r-27,133r-252,0","w":699,"k":{"-":40}},"u":{"d":"278,-367v-36,146,16,260,170,260v173,0,238,-107,269,-251r123,-592r155,0r-129,618v-43,215,-161,357,-424,357v-237,0,-371,-142,-321,-382r123,-593r155,0","w":1020},"v":{"d":"271,-950r133,659v8,41,14,77,19,109r4,0r121,-224r306,-544r178,0r-559,950r-147,0r-208,-950r153,0","w":957,"k":{"?":60,".":60,",":65}},"w":{"d":"773,-775r-85,217r-242,558r-163,0r-165,-950r158,0r112,767r5,0r98,-248r226,-519r168,0r69,706v2,22,3,42,4,61r5,0v116,-269,265,-512,395,-767r176,0r-529,950r-160,0r-59,-640r-7,-135r-6,0","w":1459,"k":{"?":60,".":60,",":65}},"x":{"d":"667,0r-200,-370r-4,0r-329,370r-184,0r444,-491r-258,-459r166,0r196,361r4,0r322,-361r184,0r-437,483r262,467r-166,0","w":933,"k":{"?":40,"-":60,"\u00f6":20,"\u011f":20,"\u00e7":20,"q":20,"o":20,"g":20,"e":20,"d":20,"c":20,"a":20}},"y":{"d":"-107,349v189,25,280,-78,357,-197v29,-46,59,-101,90,-165r-216,-937r160,0r165,751r4,0r405,-751r179,0r-543,977v-92,159,-184,339,-346,421v-75,38,-180,51,-283,35","w":962,"k":{"?":50,".":80,",":60}},"z":{"d":"634,-813r0,-4r-464,0r28,-133r666,0r-20,98r-605,715r0,4r505,0r-27,133r-717,0r17,-84","w":874,"k":{"?":40}},"\u00e7":{"d":"347,15v-165,-38,-262,-152,-262,-357v0,-300,132,-513,358,-604v126,-51,312,-25,411,24r-27,132v-88,-41,-233,-74,-335,-26v-162,74,-244,242,-252,464v-5,161,73,242,230,242v93,0,191,-30,251,-62r-28,142v-63,32,-139,50,-226,54r-43,104v90,13,159,54,161,152v5,203,-241,243,-425,186r24,-112v82,33,265,37,265,-64v0,-79,-100,-69,-187,-75","w":849,"k":{"}":-50,"]":-40,")":-50,"-":50,"\u00e7":20,"c":20}},"\u011f":{"d":"511,-1432v-8,106,27,177,131,175v123,-3,182,-70,218,-175r136,0v-48,170,-153,294,-365,296v-177,2,-270,-114,-247,-296r127,0xm286,-538v-50,149,-80,431,113,431v143,0,220,-111,277,-219v59,-113,72,-272,105,-411v-41,-55,-96,-106,-193,-106v-183,0,-253,159,-302,305xm-18,303v107,47,286,70,413,30v191,-61,228,-273,271,-484r-4,0v-68,96,-152,171,-303,176v-307,9,-298,-404,-207,-639v57,-147,144,-272,284,-333v44,-19,92,-28,143,-28v106,0,189,49,227,121r4,0r46,-96r126,0r-208,1008v-57,269,-213,430,-531,432v-111,0,-205,-22,-288,-51","w":1022,"k":{"j":-30,"f":-30}},"\u0131":{"d":"55,0r197,-950r155,0r-197,950r-155,0","w":437},"\u00f6":{"d":"375,-1171r35,-167r159,0r-35,167r-159,0xm756,-1171r35,-167r159,0r-35,167r-159,0xm746,-381v66,-173,74,-474,-155,-462v-181,8,-258,138,-311,275v-26,66,-40,146,-40,229v0,139,56,232,195,232v180,0,258,-137,311,-274xm600,-975v275,-3,382,225,328,507v-42,217,-150,389,-338,464v-49,19,-105,29,-166,29v-269,2,-379,-215,-326,-493v42,-220,149,-399,337,-477v49,-20,104,-30,165,-30","w":1006,"k":{"x":20}},"\u015f":{"d":"499,-843v-111,0,-198,42,-198,148v0,130,146,133,241,177v88,41,164,93,162,222v-4,211,-148,300,-347,319r-44,105v90,13,159,54,161,152v5,203,-241,243,-425,186r24,-112v82,33,265,38,265,-64v0,-79,-100,-68,-187,-75r83,-194v-78,-7,-160,-29,-204,-56r29,-130v69,29,152,59,250,58v140,-1,243,-46,243,-169v0,-148,-179,-142,-280,-199v-70,-39,-121,-91,-125,-198v-11,-315,391,-358,629,-237r-27,128v-73,-31,-153,-61,-250,-61","w":816},"\u00fc":{"d":"382,-1171r35,-167r159,0r-35,167r-159,0xm763,-1171r35,-167r159,0r-35,167r-159,0xm278,-367v-36,146,16,260,170,260v173,0,238,-107,269,-251r123,-592r155,0r-129,618v-43,215,-161,357,-424,357v-237,0,-371,-142,-321,-382r123,-593r155,0","w":1020},"&":{"d":"412,25v-217,0,-354,-111,-354,-318v0,-242,167,-334,329,-421v-67,-79,-137,-157,-137,-298v0,-233,163,-351,398,-351v186,0,317,80,317,264v0,246,-196,323,-363,413r295,354v84,-95,149,-214,181,-364r149,0v-35,195,-127,351,-243,469r189,227r-185,0r-113,-133v-122,89,-275,158,-463,158xm209,-301v-6,201,222,225,396,163v62,-22,124,-53,185,-97r-323,-384v-122,70,-251,136,-258,318xm633,-1231v-159,0,-261,106,-225,271v17,76,66,125,113,181v105,-52,212,-102,265,-202v16,-29,24,-63,24,-100v1,-103,-74,-150,-177,-150","w":1302},"`":{"d":"518,-1473r50,349r-126,0r-88,-349r164,0","w":700},",":{"d":"151,-218r173,0r-243,608r-151,0","w":542,"k":{"w":70,"v":70,"\u00dc":60,"\u00d6":50,"Y":100,"W":125,"V":125,"U":60,"T":140,"O":50}},";":{"d":"145,-218r173,0r-237,608r-151,0xm426,-807r-40,195r-191,0r40,-195r191,0","w":542,"k":{"Y":90,"W":40,"V":40,"T":115}},":":{"d":"75,0r40,-195r191,0r-40,195r-191,0xm433,-807r-40,195r-191,0r40,-195r191,0","w":542,"k":{"Y":90,"W":40,"V":40,"T":125}},".":{"d":"75,0r40,-195r191,0r-40,195r-191,0","w":542,"k":{"y":135,"w":95,"v":95,"\u00dc":50,"\u00d6":120,"Y":145,"W":170,"V":170,"U":50,"T":125,"Q":100,"O":120}},"-":{"d":"150,-571r421,0r-30,145r-421,0","w":661,"k":{"y":30,"x":50,"\u015e":60,"Y":80,"W":100,"V":100,"T":50,"S":60,"J":120}},"\u2010":{"d":"150,-571r421,0r-30,145r-421,0","w":661},"\u00ad":{"d":"150,-571r421,0r-30,145r-421,0","w":661},"!":{"d":"75,0r40,-195r187,0r-40,195r-187,0xm533,-1338r-213,907r-135,0r165,-907r183,0","w":541},"?":{"d":"159,0r41,-195r187,0r-41,195r-187,0xm561,-1363v197,3,337,84,337,276v0,367,-443,322,-492,656r-142,0v17,-290,270,-346,419,-503v33,-35,57,-81,57,-146v0,-219,-366,-153,-496,-82r27,-134v73,-41,178,-69,290,-67","w":850,"k":{"\"":-40,"'":-40}},"\/":{"d":"-132,249r710,-1587r156,0r-711,1587r-155,0","w":563},"|":{"d":"305,465r-145,0r0,-1913r145,0r0,1913","w":465},"(":{"d":"283,325v-123,-134,-200,-346,-200,-609v0,-513,231,-847,520,-1079r77,85v-257,228,-444,545,-449,1021v-2,213,52,376,141,497","w":580,"k":{"\u00fc":30,"\u00f6":40,"\u011f":30,"\u00e7":40,"u":30,"q":40,"o":40,"j":-115,"g":30,"f":-100,"e":40,"d":40,"c":40,"a":40,"\u00d6":30,"\u011e":40,"\u00c7":40,"O":30,"G":40,"C":40}},")":{"d":"303,-1363v123,134,200,346,200,609v0,513,-231,847,-520,1079r-77,-85v257,-228,444,-546,449,-1021v2,-215,-52,-376,-141,-497","w":580},"[":{"d":"342,-1338r406,0r-26,123r-255,0r-291,1392r255,0r-26,123r-405,0","w":633,"k":{"j":-100,"f":-90,"\u00d6":30,"\u00c7":40,"O":30,"C":40}},"]":{"d":"290,300r-405,0r26,-123r254,0r291,-1392r-255,0r26,-123r406,0","w":633},"{":{"d":"106,-584v133,2,207,-56,205,-193v-2,-107,-58,-165,-52,-277v11,-218,198,-288,440,-284r-26,123v-150,-1,-261,34,-261,167v0,98,45,153,43,256v-4,146,-79,236,-191,273r0,4v97,24,115,190,67,288v-43,88,-112,151,-143,247v-38,118,63,163,194,157r-26,123v-211,11,-373,-72,-321,-278v38,-152,184,-211,194,-389v5,-81,-68,-95,-148,-95","w":599,"k":{"j":-100,"f":-70}},"}":{"d":"498,-454v-133,-2,-207,56,-205,193v2,107,58,165,52,277v-11,218,-198,288,-440,284r26,-123v150,1,261,-34,261,-167v0,-98,-45,-153,-43,-256v4,-146,79,-236,191,-273r0,-4v-97,-24,-115,-190,-67,-288v43,-88,112,-151,143,-247v38,-118,-63,-163,-194,-157r26,-123v211,-11,373,72,321,278v-38,152,-184,211,-194,389v-5,81,68,95,148,95","w":599},"*":{"d":"625,-850r-5,0r-115,181r-137,132r-101,-104r137,-132r178,-118r-1,-5r-200,-57r-162,-86r68,-128r163,86r157,134r4,-4r-8,-206r33,-187r143,25r-33,187r-78,191r3,5r193,-71r182,-26r21,143r-182,26r-207,-15r-3,5r126,171r84,171r-130,64r-84,-171","w":1097},"^":{"d":"199,-543r-150,0r408,-820r136,0r408,820r-150,0r-324,-662r-4,0"},"~":{"d":"695,-473v76,0,109,-43,142,-91r102,73v-43,85,-116,152,-240,152v-141,0,-225,-98,-356,-98v-76,0,-109,43,-142,91r-102,-73v43,-85,116,-152,240,-152v140,0,224,98,356,98"},"\\":{"d":"327,249r-241,-1587r142,0r241,1587r-142,0","w":563},"_":{"d":"0,142r1000,0r0,133r-1000,0r0,-133","w":1000},"'":{"d":"278,-1338r157,0r-103,494r-157,0","w":380,"k":{".":40,"J":130,"A":90}},"\"":{"d":"278,-1338r157,0r-103,494r-157,0xm619,-1338r157,0r-103,494r-157,0","w":721,"k":{".":40,"J":130,"A":90}},"@":{"d":"1083,-965v106,0,185,48,223,120r4,0r46,-95r126,0r-141,669v-17,86,-7,144,70,144v168,0,242,-165,287,-319v41,-139,39,-335,-15,-461v-87,-202,-273,-321,-555,-321v-380,0,-595,188,-712,454v-52,118,-82,261,-82,420v0,419,234,632,662,635v193,2,379,-36,513,-85r-28,141v-222,75,-572,110,-818,29v-297,-98,-483,-329,-483,-723v0,-413,171,-696,428,-864v132,-86,302,-143,513,-142v357,2,590,156,699,411v67,158,69,387,16,558v-48,155,-136,280,-262,350v-60,33,-126,49,-195,49v-123,0,-189,-61,-188,-181r-4,0v-71,100,-167,181,-325,181v-174,0,-260,-123,-255,-314v8,-301,121,-528,334,-628v43,-20,91,-28,142,-28xm796,-534v-43,137,-86,415,101,407v149,-6,227,-108,285,-219v54,-105,70,-251,100,-381v-41,-54,-92,-106,-187,-106v-183,0,-253,154,-299,299","w":2035},"\u20ac":{"d":"644,25v-247,0,-399,-114,-419,-344r-140,0r28,-133r117,0v5,-48,13,-95,26,-142r-118,0r28,-133r137,0v96,-195,252,-339,536,-343v91,-1,171,15,233,39r-29,135v-117,-50,-300,-54,-410,12v-60,36,-112,87,-152,157r341,0r-28,133r-368,0v-14,45,-24,92,-29,142r309,0r-28,133r-288,0v11,149,111,208,269,209v100,1,187,-16,257,-40r-30,138v-67,25,-147,37,-242,37","w":1030},"$":{"d":"596,-561v133,28,263,70,263,230v0,209,-177,278,-375,302r-21,104r-132,0r21,-101v-102,-5,-207,-24,-271,-54r27,-134v67,35,173,51,272,54r61,-291v-134,-29,-250,-82,-250,-245v0,-206,157,-283,364,-291r21,-100r132,0r-22,105v90,6,162,22,229,46r-28,134v-69,-24,-141,-41,-229,-47xm513,-167v100,-16,192,-45,192,-154v0,-76,-72,-91,-137,-107xm526,-850v-120,2,-215,77,-171,196v16,42,65,56,115,68","w":1030,"k":{"9":50,"8":50,"7":50,"6":50,"5":50,"3":50,"2":50}},"#":{"d":"466,-949r120,-389r152,0r-120,389r286,0r120,-389r152,0r-120,389r193,0r-14,132r-220,0r-91,296r199,0r-14,132r-226,0r-120,389r-152,0r120,-389r-286,0r-120,389r-152,0r120,-389r-193,0r14,-132r220,0r91,-296r-199,0r14,-132r226,0xm486,-521r286,0r91,-296r-286,0","w":1290},"0":{"d":"604,-975v237,1,355,125,355,357v0,304,-139,521,-365,614v-49,20,-104,29,-164,29v-237,0,-355,-126,-355,-357v0,-304,139,-521,365,-614v49,-20,104,-29,164,-29xm804,-614v-1,-147,-59,-234,-207,-229v-194,6,-288,157,-339,317v-19,61,-28,125,-28,190v1,147,59,234,207,229v193,-6,290,-157,340,-317v19,-61,27,-125,27,-190","w":1034,"k":{"3":35,"2":45}},"1":{"d":"378,-143r133,-638r-372,113r31,-150r397,-132r134,0r-168,807r295,0r-29,143r-744,0r29,-143r294,0","w":929,"k":{"7":40,"5":30,"3":30}},"2":{"d":"553,-975v189,2,318,75,318,256v0,141,-76,233,-157,313v-101,101,-237,187,-367,269r-1,4v180,-16,314,-8,495,-10r-29,143r-753,0r21,-107r248,-161v132,-89,255,-179,338,-294v33,-48,50,-97,50,-146v0,-93,-66,-136,-173,-134v-123,1,-224,41,-322,81r28,-136v73,-40,193,-79,304,-78","w":1032,"k":{"9":30,"7":40,"5":35,"3":40,"2":80,"0":35}},"3":{"d":"574,-55v0,-185,-198,-181,-392,-179r27,-133v212,12,361,-52,432,-186v19,-37,29,-77,29,-120v0,-238,-359,-172,-521,-110r27,-132v86,-36,192,-60,297,-60v205,0,353,84,353,280v0,214,-128,330,-298,383r-1,4v127,18,202,106,202,247v0,250,-145,385,-340,445v-159,49,-383,31,-497,-36r27,-126v79,36,155,60,272,58v226,-4,383,-112,383,-335","w":929},"4":{"d":"224,-133r0,4r148,-4r182,0r63,-304r155,0r-63,304r189,0r-27,133r-189,0r-81,387r-155,0r81,-387r-507,0r23,-114r535,-836r168,0","w":1028},"5":{"d":"632,-42v0,-221,-261,-255,-508,-226r203,-682r626,0r-30,143r-490,0r-119,397v279,-9,473,103,473,363v0,219,-126,351,-295,420v-152,62,-414,46,-537,-26r27,-127v79,37,166,58,268,58v222,0,382,-106,382,-320","w":998,"k":{"2":20,"0":50}},"6":{"d":"601,-806v208,0,334,115,334,330v0,217,-108,377,-261,456v-58,30,-124,45,-200,45v-249,0,-359,-169,-359,-427v0,-339,122,-612,295,-795v106,-113,283,-198,496,-154v37,8,78,22,123,41r-27,130v-100,-48,-265,-69,-374,-6v-175,102,-271,299,-336,518r4,0v68,-76,169,-138,305,-138xm780,-462v0,-134,-74,-206,-204,-206v-148,0,-239,85,-283,197v-15,40,-23,84,-23,131v3,142,70,233,210,233v202,0,300,-156,300,-355","w":1039,"k":{"7":20,"2":25}},"7":{"d":"83,-807r30,-143r768,0r-22,104r-694,1233r-166,0r667,-1194r-583,0","w":859,"k":{"4":40,"2":40}},"8":{"d":"415,-701v-92,-55,-172,-127,-172,-273v0,-197,112,-310,260,-363v51,-17,104,-26,161,-26v219,3,368,94,368,307v0,210,-136,317,-305,370r-1,4v113,35,199,116,199,260v0,226,-125,356,-295,417v-58,20,-120,30,-186,30v-223,-2,-367,-97,-367,-313v0,-234,142,-361,337,-409xm586,-756v159,-32,291,-112,291,-295v0,-115,-85,-184,-210,-181v-166,4,-269,93,-269,260v0,134,82,186,188,216xm232,-299v0,131,86,194,227,192v143,-2,238,-71,285,-173v17,-37,26,-79,26,-126v-3,-138,-92,-193,-213,-213v-188,22,-325,116,-325,320","w":1032,"k":{"2":45}},"9":{"d":"552,-975v253,0,374,166,374,433v0,364,-127,643,-325,818v-114,101,-318,173,-515,118v-43,-12,-76,-26,-101,-39r31,-129v101,57,278,71,395,9v186,-99,293,-296,353,-524r-4,0v-67,84,-173,145,-321,145v-208,0,-331,-116,-331,-328v0,-228,109,-386,266,-464v54,-26,113,-39,178,-39xm263,-480v-3,129,71,198,197,198v194,0,311,-125,311,-316v0,-147,-69,-245,-215,-245v-196,0,-288,160,-293,363","w":1039},"%":{"d":"1443,-1363r85,88r-1209,1300r-85,-88xm352,-494v-151,-1,-221,-103,-218,-263v5,-263,80,-483,255,-579v35,-19,76,-27,121,-27v151,1,221,103,218,263v-5,263,-80,482,-255,578v-35,19,-76,28,-121,28xm582,-1002v10,-108,22,-245,-85,-240v-100,5,-138,99,-169,182v-32,83,-53,183,-53,289v0,95,8,156,90,156v101,0,137,-100,169,-182v24,-61,42,-134,48,-205xm1264,19v-151,-1,-221,-103,-218,-263v5,-263,80,-482,255,-578v35,-19,76,-28,121,-28v151,1,221,103,218,263v-5,263,-80,483,-255,579v-35,19,-76,27,-121,27xm1494,-488v10,-108,22,-246,-85,-241v-100,5,-138,99,-169,182v-32,83,-53,183,-53,289v0,95,8,156,90,156v101,0,137,-100,169,-182v24,-61,42,-133,48,-204","w":1694},"+":{"d":"115,-587r340,0r0,-363r140,0r0,363r340,0r0,132r-340,0r0,363r-140,0r0,-363r-340,0r0,-132"},"=":{"d":"115,-639r0,-132r820,0r0,132r-820,0xm115,-273r0,-132r820,0r0,132r-820,0"},"<":{"d":"935,-207r0,152r-820,-413r0,-126r820,-413r0,152r-652,322r0,4"},">":{"d":"777,-529r0,-4r-662,-324r0,-150r820,408r0,136r-820,408r0,-150"},"\u20ab":{"d":"562,-975v115,-1,187,49,230,121r4,0r62,-298r-267,0r27,-133r268,0r34,-163r155,0r-34,163r162,0r-27,133r-163,0r-199,966v-16,78,53,76,125,64r-27,128v-29,6,-60,9,-93,9v-117,-1,-157,-50,-155,-171r-4,0v-69,97,-158,176,-310,181v-309,11,-299,-409,-208,-645v56,-145,141,-269,280,-328v43,-18,90,-27,140,-27xm275,-540v-50,150,-78,433,115,433v143,0,220,-111,276,-219v59,-113,73,-272,106,-411v-41,-56,-99,-105,-196,-105v-184,0,-252,157,-301,302xm64,142r812,0r-28,133r-812,0"}}});
/*!
 * The following copyright notice may not be removed under any circumstances.
 * 
 * Copyright:
 * © 2008 Microsoft Corporation. All Rights Reserved.
 * 
 * Trademark:
 * Corbel is either a registered trademark or a trademark of Microsoft Corporation
 * in the United States and/or other countries.
 * 
 * Description:
 * Corbel is designed to give an uncluttered and clean appearance on screen. The
 * letter forms are open with soft, flowing curves. It is legible, clear and
 * functional at small sizes. At larger sizes the detailing and style of the shapes
 * is more apparent resulting in a modern sans serif type with a wide range of
 * possible uses.
 * 
 * Manufacturer:
 * Microsoft Corporation
 * 
 * Designer:
 * Jeremy Tankard
 * 
 * Vendor URL:
 * http://www.microsoft.com/typography/ctfonts
 * 
 * License information:
 * http://www.microsoft.com/typography/fonts/default.aspx
 */
